
\data\
ngram 1=15000


\1-grams:
-1.0000 <UNK>
-99.0000 <s>
-1.0000 </s>
-2.6628 ноль
-2.6628 нуль
-2.6628 нулём
-2.6628 нолик
-2.6628 один
-2.6628 раз
-2.6628 первый
-2.6628 единица
-2.6628 единичка
-2.6628 единичный
-2.6628 разовый
-2.6628 одним
-2.6628 второй
-2.6628 вторые
-2.6628 два
-2.6628 двойка
-2.6628 двоечка
-2.6628 пара
-2.6628 тройка
-2.6628 троечка
-2.6628 три
-2.6628 четыре
-2.6628 четвёртый
-2.6628 четверых
-2.6628 четыремя
-2.6628 пять
-2.6628 пятёрка
-2.6628 пятёрочка
-2.6628 пятак
-2.6628 пятью
-2.6628 пятый
-2.6628 шесть
-2.6628 шестёрочка
-2.6628 шестой
-2.6628 шестью
-2.6628 семь
-2.6628 семёрка
-2.6628 семёрочка
-2.6628 семью
-2.6628 седьмой
-2.6628 восемь
-2.6628 восьмёрочка
-2.6628 восемью
-2.6628 восьми
-2.6628 восьмой
-2.6628 восьмым
-2.6628 девять
-2.6628 девятый
-2.6628 девятью
-2.6628 десять
-2.6628 десяток
-2.6628 десяточка
-2.6628 десятина
-2.6628 десятый
-2.6628 десятью
-2.6628 одиннадцать
-2.6628 двенадцать
-2.6628 тринадцать
-2.6628 четырнадцать
-2.6628 пятнадцать
-2.6628 шестнадцать
-2.6628 семнадцать
-2.6628 восемнадцать
-2.6628 двадцать
-2.6628 двадцатник
-2.6628 тридцать
-2.6628 тридцатник
-2.6628 сорок
-2.6628 сорокет
-2.6628 пятьдесят
-2.6628 шестьдесят
-2.6628 семьдесят
-2.6628 восемьдесят
-2.6628 девяносто
-2.6628 сто
-2.6628 сотый
-2.6628 сотня
-2.6628 двустам
-2.6628 двухсотый
-2.6628 двести
-2.6628 трёхсотый
-2.6628 триста
-2.6628 четыреста
-2.6628 четырёхсотый
-2.6628 пятьсот
-2.6628 пятисотый
-2.6628 шестисотый
-2.6628 семисотый
-2.6628 восьмисотый
-2.6628 девятисотый
-2.6628 тысячный
-2.6628 миллионный
-2.6628 миллардный
-2.6628 шестьсот
-2.6628 семьсот
-2.6628 восемьсот
-2.6628 девятьсот
-2.6628 тысяча
-2.6628 миллион
-2.6628 миллиард
-2.6628 январь
-2.6628 февраль
-2.6628 март
-2.6628 апрель
-2.6628 май
-2.6628 июнь
-2.6628 июль
-2.6628 август
-2.6628 сентябрь
-2.6628 октябрь
-2.6628 ноябрь
-2.6628 декабрь
-2.6628 января
-2.6628 февраля
-2.6628 марта
-2.6628 апреля
-2.6628 мая
-2.6628 июня
-2.6628 июля
-2.6628 августа
-2.6628 сентября
-2.6628 октября
-2.6628 ноября
-2.6628 декабря
-2.6628 январю
-2.6628 февралю
-2.6628 марту
-2.6628 апрелю
-2.6628 маю
-2.6628 июню
-2.6628 июлю
-2.6628 августу
-2.6628 сентябрю
-2.6628 октябрю
-2.6628 ноябрю
-2.6628 декабрю
-2.6628 день
-2.6628 дней
-2.6628 месяц
-2.6628 месяцев
-2.6628 неделя
-2.6628 год
-2.6628 десятилетие
-2.6628 век
-2.6628 лет
-2.6628 воскресенье
-2.6628 понедельник
-2.6628 вторник
-2.6628 среда
-2.6628 четверг
-2.6628 пятница
-2.6628 суббота
-2.6628 будни
-2.6628 выходной
-2.6628 выходные
-2.6628 прошлый
-2.6628 предыдущий
-2.6628 следующий
-2.6628 последующий
-2.6628 этот
-2.6628 текущий
-2.6628 до
-2.6628 после
-2.6628 перед
-2.6628 поза
-2.6628 после
-2.6628 вчера
-2.6628 завтра
-2.6628 включительно
-2.6628 через
-2.6628 открой
-2.6628 открыть
-2.6628 запусти
-2.6628 запустить
-2.6628 отладка
-2.6628 консоль
-2.6628 дебаг
-2.6628 поставь
-2.6628 блокнот
-2.6628 браузер
-2.6628 папка
-2.6628 файл
-2.6628 компьютер
-2.6628 документ
-2.6628 настройки
-2.6628 макрос
-2.6628 поставь
-2.6628 поставить
-2.6628 запись
-2.6628 записать
-2.6628 закрой
-2.6628 закрыть
-2.6628 время
-2.6628 дата
-2.6628 число
-2.6628 корзина
-2.6628 выключи
-2.6628 выключить
-2.6628 включи
-2.6628 включить
-2.6628 привет
-2.6628 пока
-2.6628 медленно
-2.6628 человек
-2.6628 будильник
-2.6628 браузер
-2.6628 калькулятор
-2.9159 и
-3.0217 в
-3.1000 не
-3.1192 на
-3.1808 что
-3.1956 с
-3.2196 он
-3.2413 а
-3.2451 я
-3.2584 как
-3.3161 то
-3.3341 его
-3.3457 к
-3.3529 это
-3.3577 но
-3.3650 по
-3.3750 все
-3.3852 у
-3.3878 за
-3.4037 из
-3.4119 же
-3.4174 так
-3.4374 было
-3.4492 от
-3.4707 она
-3.4707 о
-3.4867 только
-3.5033 был
-3.5067 когда
-3.5102 вы
-3.5102 еще
-3.5206 бы
-3.5242 ее
-3.5278 ты
-3.5350 вот
-3.5461 мне
-3.5498 да
-3.5536 ему
-3.5536 меня
-3.5652 сказал
-3.5692 они
-3.5812 уже
-3.5812 их
-3.5894 для
-3.5977 мы
-3.6062 до
-3.6193 нет
-3.6193 где
-3.6193 него
-3.6193 или
-3.6283 ни
-3.6374 теперь
-3.6374 если
-3.6374 чтобы
-3.6374 даже
-3.6421 быть
-3.6421 под
-3.6468 очень
-3.6468 ну
-3.6563 была
-3.6563 ли
-3.6612 были
-3.6710 во
-3.6710 там
-3.6760 чем
-3.6760 кто
-3.6760 может
-3.6967 время
-3.7021 себя
-3.7021 тут
-3.7075 потом
-3.7075 есть
-3.7129 раз
-3.7129 со
-3.7129 этот
-3.7129 вас
-3.7184 без
-3.7184 глаза
-3.7241 будет
-3.7241 этого
-3.7241 человек
-3.7297 вдруг
-3.7355 ничего
-3.7355 здесь
-3.7413 нас
-3.7413 вам
-3.7413 ведь
-3.7413 надо
-3.7472 тогда
-3.7472 себе
-3.7532 один
-3.7532 через
-3.7532 уж
-3.7532 сам
-3.7532 тоже
-3.7532 ним
-3.7593 при
-3.7593 перед
-3.7593 над
-3.7593 них
-3.7654 того
-3.7654 этом
-3.7654 нибудь
-3.7717 всех
-3.7717 конечно
-3.7717 говорит
-3.7717 после
-3.7717 несколько
-3.7717 два
-3.7780 ей
-3.7845 больше
-3.7845 тем
-3.7845 какой
-3.7845 день
-3.7910 дело
-3.7976 тебе
-3.7976 лицо
-3.7976 тебя
-3.8044 им
-3.8044 спросил
-3.8044 совсем
-3.8112 эти
-3.8112 своей
-3.8112 можно
-3.8182 почему
-3.8182 тот
-3.8182 будто
-3.8182 том
-3.8182 сейчас
-3.8182 ней
-3.8252 опять
-3.8252 руки
-3.8252 чего
-3.8252 говорил
-3.8252 куда
-3.8252 нее
-3.8252 который
-3.8324 хорошо
-3.8324 такой
-3.8324 свою
-3.8397 об
-3.8397 потому
-3.8397 голову
-3.8397 руку
-3.8397 лет
-3.8397 три
-3.8397 этой
-3.8397 мог
-3.8471 другой
-3.8471 много
-3.8547 между
-3.8547 стал
-3.8547 хотя
-3.8547 сказать
-3.8547 нам
-3.8547 жизни
-3.8624 жизнь
-3.8624 почти
-3.8702 наконец
-3.8702 снова
-3.8702 люди
-3.8702 всего
-3.8782 таки
-3.8782 всем
-3.8782 пока
-3.8782 всегда
-3.8782 ответил
-3.8782 глазами
-3.8782 знаю
-3.8782 точно
-3.8782 более
-3.8782 людей
-3.8863 слова
-3.8863 нем
-3.8863 мой
-3.8945 весь
-3.8945 эту
-3.8945 свои
-3.8945 которые
-3.8945 такое
-3.8945 своих
-3.8945 эта
-3.9030 однако
-3.9030 значит
-3.9030 сказала
-3.9030 человека
-3.9030 своего
-3.9116 года
-3.9116 дома
-3.9116 вместе
-3.9116 нельзя
-3.9116 сразу
-3.9116 видел
-3.9203 казалось
-3.9203 никогда
-3.9293 зачем
-3.9293 долго
-3.9293 свой
-3.9293 какие
-3.9293 именно
-3.9293 просто
-3.9293 которой
-3.9293 нему
-3.9293 этих
-3.9293 тихо
-3.9384 своим
-3.9384 знал
-3.9384 голос
-3.9384 стало
-3.9384 сегодня
-3.9384 около
-3.9384 нужно
-3.9384 ж
-3.9384 хотел
-3.9384 свое
-3.9384 среди
-3.9478 какая
-3.9478 лучше
-3.9478 сколько
-3.9478 говорю
-3.9478 кажется
-3.9478 чуть
-3.9478 никто
-3.9478 совершенно
-3.9478 головой
-3.9478 быстро
-3.9478 думал
-3.9478 две
-3.9478 всю
-3.9478 которого
-3.9573 отец
-3.9573 назад
-3.9573 пошел
-3.9573 мать
-3.9573 ко
-3.9573 этим
-3.9573 ноги
-3.9573 стоял
-3.9573 разве
-3.9573 прямо
-3.9671 ночь
-3.9671 одной
-3.9671 кого
-3.9671 рядом
-3.9671 дня
-3.9671 одного
-3.9671 правда
-3.9671 говорить
-3.9671 первый
-3.9671 одна
-3.9771 должен
-3.9771 дверь
-3.9771 давно
-3.9771 друг
-3.9771 дальше
-3.9771 увидел
-3.9771 сердце
-3.9771 которых
-3.9771 глаз
-3.9771 те
-3.9771 вся
-3.9771 иногда
-3.9771 могу
-3.9771 вышел
-3.9873 скоро
-3.9873 одно
-3.9873 старик
-3.9873 пять
-3.9873 кроме
-3.9873 оно
-3.9873 ними
-3.9873 смотрел
-3.9873 сюда
-3.9978 рукой
-3.9978 большой
-3.9978 сторону
-3.9978 двух
-3.9978 против
-3.9978 начал
-3.9978 ваше
-3.9978 действительно
-3.9978 знает
-3.9978 проговорил
-3.9978 про
-3.9978 хоть
-3.9978 тому
-3.9978 шел
-3.9978 та
-3.9978 каждый
-3.9978 такие
-3.9978 деньги
-4.0085 руками
-4.0085 стоит
-4.0085 слово
-4.0085 делать
-4.0085 знаете
-4.0085 место
-4.0085 времени
-4.0085 капитан
-4.0085 лица
-4.0085 идет
-4.0085 минуту
-4.0085 тех
-4.0085 понял
-4.0085 взял
-4.0085 буду
-4.0085 стали
-4.0085 дом
-4.0195 немного
-4.0195 мало
-4.0195 собой
-4.0195 особенно
-4.0195 солнце
-4.0195 молодой
-4.0195 говорят
-4.0195 сидел
-4.0195 должно
-4.0195 таким
-4.0195 вообще
-4.0195 заметил
-4.0195 моя
-4.0195 довольно
-4.0195 ленька
-4.0195 алексей
-4.0195 откуда
-4.0195 чтоб
-4.0308 вперед
-4.0308 словно
-4.0308 затем
-4.0308 ливенцев
-4.0308 которая
-4.0308 едва
-4.0308 видно
-4.0308 пусть
-4.0308 идти
-4.0308 думаю
-4.0308 посмотрел
-4.0308 женщина
-4.0308 самом
-4.0308 море
-4.0308 бог
-4.0308 медленно
-4.0308 какое
-4.0423 город
-4.0423 лицом
-4.0423 хочу
-4.0423 николай
-4.0423 своем
-4.0423 других
-4.0423 часто
-4.0423 такая
-4.0423 подумал
-4.0423 мысли
-4.0423 раньше
-4.0423 стороны
-4.0423 самого
-4.0423 мама
-4.0423 сквозь
-4.0423 ка
-4.0423 далеко
-4.0423 двери
-4.0423 лишь
-4.0423 руках
-4.0423 подошел
-4.0423 ночью
-4.0423 ах
-4.0542 сделать
-4.0542 войны
-4.0542 этому
-4.0542 будут
-4.0542 пришел
-4.0542 мной
-4.0542 жить
-4.0542 голосом
-4.0542 той
-4.0542 туда
-4.0542 домой
-4.0542 двадцать
-4.0542 такого
-4.0542 десять
-4.0542 которую
-4.0542 сама
-4.0542 завтра
-4.0542 отца
-4.0542 четыре
-4.0542 сами
-4.0542 продолжал
-4.0542 утром
-4.0665 другие
-4.0665 вид
-4.0665 равно
-4.0665 впрочем
-4.0665 вопрос
-4.0665 самый
-4.0665 оба
-4.0665 всей
-4.0665 б
-4.0665 вполне
-4.0665 наш
-4.0665 вами
-4.0665 сделал
-4.0665 дела
-4.0665 крикнул
-4.0665 вокруг
-4.0665 мои
-4.0665 прежде
-4.0665 кругом
-4.0665 офицер
-4.0665 таких
-4.0665 месте
-4.0665 каким
-4.0665 брат
-4.0665 деле
-4.0665 глазах
-4.0665 знаешь
-4.0665 одну
-4.0791 году
-4.0791 шли
-4.0791 свет
-4.0791 места
-4.0791 жена
-4.0791 землю
-4.0791 земле
-4.0791 небо
-4.0791 год
-4.0791 солдат
-4.0791 хотелось
-4.0791 товарищ
-4.0791 минут
-4.0791 должны
-4.0791 наши
-4.0791 матери
-4.0791 вчера
-4.0791 вниз
-4.0791 мальчик
-4.0791 улице
-4.0791 весело
-4.0791 комнате
-4.0791 старый
-4.0791 иванович
-4.0791 мимо
-4.0920 воды
-4.0920 кому
-4.0920 черт
-4.0920 своему
-4.0920 окна
-4.0920 ночи
-4.0920 смерти
-4.0920 знать
-4.0920 вечером
-4.0920 ясно
-4.0920 моей
-4.0920 сел
-4.0920 головы
-4.0920 случае
-4.0920 вижу
-4.0920 говорили
-4.0920 самое
-4.0920 могли
-4.0920 россии
-4.0920 часов
-4.0920 поднял
-4.0920 какую
-4.0920 спокойно
-4.0920 иван
-4.0920 стол
-4.0920 мое
-4.0920 час
-4.0920 остановился
-4.0920 также
-4.0920 своими
-4.0920 однажды
-4.0920 города
-4.0920 встал
-4.0920 котором
-4.0920 господин
-4.0920 второй
-4.0920 дни
-4.1054 самой
-4.1054 земли
-4.1054 мысль
-4.1054 слишком
-4.1054 имя
-4.1054 маленький
-4.1054 одним
-4.1054 вспомнил
-4.1054 стала
-4.1054 вошел
-4.1054 комнату
-4.1054 письмо
-4.1054 чувствовал
-4.1054 леонардо
-4.1054 видеть
-4.1054 кое
-4.1054 друга
-4.1054 молча
-4.1054 народ
-4.1054 голове
-4.1054 м
-4.1054 слышал
-4.1054 трудно
-4.1054 тело
-4.1054 ту
-4.1054 девушка
-4.1054 ветер
-4.1192 доме
-4.1192 генерал
-4.1192 поэтому
-4.1192 женщины
-4.1192 которым
-4.1192 взгляд
-4.1192 дней
-4.1192 пожалуй
-4.1192 слов
-4.1192 вместо
-4.1192 хочешь
-4.1192 помню
-4.1192 улыбнулся
-4.1192 сын
-4.1192 голова
-4.1192 денег
-4.1192 ребята
-4.1192 иначе
-4.1192 чайкин
-4.1192 разговор
-4.1192 николаевич
-4.1192 смерть
-4.1192 п
-4.1192 слегка
-4.1192 страшно
-4.1192 верно
-4.1192 одном
-4.1192 василий
-4.1334 будем
-4.1334 г
-4.1334 губы
-4.1334 ушел
-4.1334 глядя
-4.1334 дал
-4.1334 адмирал
-4.1334 пришлось
-4.1334 го
-4.1334 впереди
-4.1334 воду
-4.1334 спать
-4.1334 решил
-4.1334 писал
-4.1334 лице
-4.1334 спросила
-4.1334 воздух
-4.1334 новый
-4.1334 тяжело
-4.1334 могла
-4.1334 пожалуйста
-4.1334 хотите
-4.1334 стояли
-4.1334 н
-4.1334 мир
-4.1334 дети
-4.1334 образом
-4.1334 господа
-4.1334 которое
-4.1334 шесть
-4.1334 говорила
-4.1334 силы
-4.1334 пор
-4.1334 э
-4.1334 вечер
-4.1334 отчего
-4.1334 война
-4.1334 свете
-4.1334 показалось
-4.1334 тотчас
-4.1334 люблю
-4.1481 сильно
-4.1481 рот
-4.1481 сзади
-4.1481 берегу
-4.1481 узнал
-4.1481 тысяч
-4.1481 другого
-4.1481 думать
-4.1481 лейтенант
-4.1481 никодим
-4.1481 какого
-4.1481 жил
-4.1481 никак
-4.1481 крепко
-4.1481 ногами
-4.1481 души
-4.1481 хочет
-4.1481 дороге
-4.1481 ног
-4.1481 случилось
-4.1481 командир
-4.1481 волосы
-4.1481 товарищи
-4.1481 вон
-4.1481 часть
-4.1481 часа
-4.1481 солдаты
-4.1481 стояла
-4.1481 утра
-4.1481 трех
-4.1481 городе
-4.1481 взглядом
-4.1481 плохо
-4.1634 конце
-4.1634 тобой
-4.1634 разумеется
-4.1634 огонь
-4.1634 детей
-4.1634 никого
-4.1634 поднялся
-4.1634 нечего
-4.1634 другим
-4.1634 кровь
-4.1634 рыжик
-4.1634 комнаты
-4.1634 например
-4.1634 громко
-4.1634 сначала
-4.1634 вода
-4.1634 другое
-4.1634 любил
-4.1634 окно
-4.1634 папа
-4.1634 рука
-4.1634 пошли
-4.1634 момент
-4.1634 говоря
-4.1634 ближе
-4.1634 полковник
-4.1634 читал
-4.1634 могут
-4.1634 савинков
-4.1634 рук
-4.1634 белые
-4.1634 богу
-4.1634 чай
-4.1634 гораздо
-4.1634 легко
-4.1634 александр
-4.1634 моего
-4.1634 часы
-4.1634 неожиданно
-4.1634 рублей
-4.1634 работы
-4.1634 улыбаясь
-4.1634 бога
-4.1634 смотреть
-4.1634 дать
-4.1634 лес
-4.1634 прошел
-4.1634 конца
-4.1634 успел
-4.1634 слезы
-4.1634 нами
-4.1634 кричал
-4.1634 месяц
-4.1634 почувствовал
-4.1634 оказалось
-4.1634 книги
-4.1634 бывает
-4.1634 взять
-4.1634 голоса
-4.1634 последний
-4.1634 улицу
-4.1634 получил
-4.1792 руке
-4.1792 петр
-4.1792 выше
-4.1792 груди
-4.1792 самому
-4.1792 доктор
-4.1792 добавил
-4.1792 вероятно
-4.1792 сына
-4.1792 сто
-4.1792 третий
-4.1792 скажу
-4.1792 меньше
-4.1792 шла
-4.1792 сидит
-4.1792 менее
-4.1792 полка
-4.1792 душу
-4.1792 несмотря
-4.1792 иваныч
-4.1792 оттуда
-4.1792 чему
-4.1792 самсон
-4.1792 стены
-4.1792 такую
-4.1792 нашей
-4.1792 прибавил
-4.1792 тема
-4.1792 нос
-4.1792 части
-4.1792 старший
-4.1792 нашел
-4.1792 углу
-4.1792 армии
-4.1792 лежал
-4.1792 вслед
-4.1792 глава
-4.1792 грудь
-4.1792 стола
-4.1792 каких
-4.1792 вроде
-4.1792 т
-4.1792 зубы
-4.1792 лесу
-4.1792 работу
-4.1792 закричал
-4.1792 сидели
-4.1792 лошадь
-4.1792 недавно
-4.1792 следует
-4.1792 путь
-4.1792 остался
-4.1792 весьма
-4.1792 душе
-4.1792 хочется
-4.1792 пол
-4.1792 любовь
-4.1792 известно
-4.1792 азеф
-4.1792 конец
-4.1792 столько
-4.1792 непременно
-4.1792 взглянул
-4.1792 нею
-4.1792 смотрит
-4.1792 странно
-4.1792 приехал
-4.1792 близко
-4.1792 двор
-4.1792 земля
-4.1792 любви
-4.1792 пути
-4.1956 видите
-4.1956 ходил
-4.1956 царь
-4.1956 воскликнул
-4.1956 скорее
-4.1956 годы
-4.1956 зато
-4.1956 отвечал
-4.1956 впервые
-4.1956 виде
-4.1956 должна
-4.1956 понимаю
-4.1956 кем
-4.1956 платье
-4.1956 ехать
-4.1956 лошади
-4.1956 многие
-4.1956 внимательно
-4.1956 вернулся
-4.1956 нашего
-4.1956 днем
-4.1956 неужели
-4.1956 анна
-4.1956 понять
-4.1956 наших
-4.1956 утро
-4.1956 главное
-4.1956 хлеба
-4.1956 берег
-4.1956 дай
-4.1956 любит
-4.1956 ответ
-4.1956 сил
-4.1956 бросил
-4.1956 всеми
-4.1956 внизу
-4.1956 либо
-4.1956 грин
-4.1956 моря
-4.1956 душа
-4.1956 имел
-4.1956 решительно
-4.1956 улыбкой
-4.1956 упал
-4.1956 солнца
-4.1956 мою
-4.1956 первого
-4.1956 черный
-4.1956 словом
-4.1956 улицы
-4.1956 е
-4.1956 дворе
-4.1956 столом
-4.1956 муж
-4.1956 случай
-4.1956 большие
-4.1956 слушал
-4.1956 будешь
-4.1956 отлично
-4.1956 матросы
-4.1956 другую
-4.1956 забыл
-4.1956 новые
-4.1956 знали
-4.1956 ваш
-4.1956 речь
-4.1956 видимо
-4.1956 собою
-4.1956 таня
-4.1956 черные
-4.1956 офицеров
-4.1956 белый
-4.1956 дорогу
-4.1956 двумя
-4.1956 толпа
-4.2126 самым
-4.2126 обратился
-4.2126 самые
-4.2126 снег
-4.2126 павел
-4.2126 сыромолотов
-4.2126 ногу
-4.2126 вечера
-4.2126 офицеры
-4.2126 машка
-4.2126 другом
-4.2126 дядя
-4.2126 писать
-4.2126 прошу
-4.2126 бабаев
-4.2126 всякий
-4.2126 девочка
-4.2126 заговорил
-4.2126 наша
-4.2126 словами
-4.2126 царя
-4.2126 ибо
-4.2126 матрос
-4.2126 дороги
-4.2126 хозяин
-4.2126 умер
-4.2126 пантелеев
-4.2126 поезд
-4.2126 протянул
-4.2126 тишина
-4.2126 большая
-4.2126 читать
-4.2126 отсюда
-4.2126 берега
-4.2126 первой
-4.2126 полу
-4.2126 никаких
-4.2126 двое
-4.2126 художник
-4.2126 никому
-4.2126 произнес
-4.2126 живет
-4.2126 большим
-4.2126 мира
-4.2126 билль
-4.2126 видит
-4.2126 надя
-4.2126 книгу
-4.2126 видишь
-4.2126 пойдем
-4.2126 радостно
-4.2126 думает
-4.2126 ха
-4.2126 матросов
-4.2126 насчет
-4.2126 приказал
-4.2126 последние
-4.2126 белых
-4.2126 человеку
-4.2126 вещи
-4.2126 одни
-4.2126 вася
-4.2126 идут
-4.2126 плечами
-4.2126 приходилось
-4.2126 стороне
-4.2126 таком
-4.2126 ради
-4.2126 пошла
-4.2126 стараясь
-4.2126 целый
-4.2303 обратно
-4.2303 л
-4.2303 возле
-4.2303 стихи
-4.2303 вовсе
-4.2303 которому
-4.2303 воде
-4.2303 начала
-4.2303 скажи
-4.2303 внимание
-4.2303 удивился
-4.2303 поздно
-4.2303 тени
-4.2303 пить
-4.2303 придется
-4.2303 всему
-4.2303 никакого
-4.2303 угодно
-4.2303 осторожно
-4.2303 темноте
-4.2303 ходить
-4.2303 первых
-4.2303 плечи
-4.2303 милый
-4.2303 делал
-4.2303 тридцать
-4.2303 минуты
-4.2303 раза
-4.2303 брата
-4.2303 вышли
-4.2303 услышал
-4.2303 бывало
-4.2303 москве
-4.2303 колени
-4.2303 повторил
-4.2303 пришла
-4.2303 прошло
-4.2303 везде
-4.2303 виду
-4.2303 петрович
-4.2303 молчал
-4.2303 фомич
-4.2303 содержание
-4.2303 старика
-4.2303 вверх
-4.2303 воздухе
-4.2303 первое
-4.2303 моих
-4.2303 другая
-4.2303 навстречу
-4.2303 эх
-4.2303 темно
-4.2303 каком
-4.2303 скажите
-4.2303 самых
-4.2303 повернулся
-4.2303 й
-4.2303 полк
-4.2303 пальцами
-4.2303 лицу
-4.2303 месяца
-4.2303 столе
-4.2303 вина
-4.2303 чувство
-4.2303 дивизии
-4.2303 осталось
-4.2303 тела
-4.2303 хуже
-4.2303 ежели
-4.2303 узнать
-4.2303 господи
-4.2303 капитана
-4.2303 сердца
-4.2303 угол
-4.2303 восемь
-4.2303 могло
-4.2303 антон
-4.2303 первые
-4.2303 спасибо
-4.2303 безайс
-4.2303 сон
-4.2303 ответила
-4.2303 офицера
-4.2303 лежит
-4.2303 найти
-4.2303 роты
-4.2303 человеком
-4.2303 пришли
-4.2303 крови
-4.2303 рассказ
-4.2303 пальцы
-4.2303 внимания
-4.2303 право
-4.2303 церкви
-4.2488 мере
-4.2488 леса
-4.2488 лошадей
-4.2488 семь
-4.2488 красный
-4.2488 письма
-4.2488 сад
-4.2488 открыл
-4.2488 света
-4.2488 рассказал
-4.2488 ждал
-4.2488 тысячи
-4.2488 слышно
-4.2488 отозвался
-4.2488 санька
-4.2488 высокий
-4.2488 мальчика
-4.2488 кричит
-4.2488 радость
-4.2488 русский
-4.2488 вздохнул
-4.2488 разные
-4.2488 пальто
-4.2488 зная
-4.2488 дали
-4.2488 оказался
-4.2488 говорите
-4.2488 командира
-4.2488 видели
-4.2488 положение
-4.2488 можете
-4.2488 ваша
-4.2488 немедленно
-4.2488 русских
-4.2488 хлеб
-4.2488 старуха
-4.2488 неизвестно
-4.2488 х
-4.2488 нового
-4.2488 давай
-4.2488 дорогой
-4.2488 пойду
-4.2488 юрий
-4.2488 плечо
-4.2488 д
-4.2488 шум
-4.2488 вновь
-4.2488 тоном
-4.2488 янкель
-4.2488 ладно
-4.2488 вышла
-4.2488 революции
-4.2488 лоб
-4.2488 внезапно
-4.2488 большую
-4.2488 ой
-4.2488 шею
-4.2488 собака
-4.2488 выходит
-4.2488 работать
-4.2488 твой
-4.2488 смотрели
-4.2488 делает
-4.2488 видом
-4.2488 хороший
-4.2488 смотрела
-4.2488 площади
-4.2488 шагов
-4.2488 брови
-4.2488 видимому
-4.2488 жаль
-4.2488 володя
-4.2488 водой
-4.2488 неделю
-4.2488 дурак
-4.2488 силу
-4.2488 счастье
-4.2488 саду
-4.2488 трудом
-4.2488 каждого
-4.2488 людям
-4.2488 маша
-4.2488 начальник
-4.2488 делу
-4.2488 уйти
-4.2488 фронт
-4.2488 мужа
-4.2488 вышло
-4.2488 сказали
-4.2488 невольно
-4.2488 боже
-4.2488 работа
-4.2488 горы
-4.2681 положил
-4.2681 поле
-4.2681 корнев
-4.2681 резко
-4.2681 смотри
-4.2681 начали
-4.2681 иметь
-4.2681 корабль
-4.2681 сорок
-4.2681 мгновение
-4.2681 красные
-4.2681 рад
-4.2681 маленькая
-4.2681 последнее
-4.2681 александра
-4.2681 старого
-4.2681 понимал
-4.2681 усмехнулся
-4.2681 серьезно
-4.2681 сергей
-4.2681 разных
-4.2681 превосходительство
-4.2681 небольшой
-4.2681 одному
-4.2681 бросился
-4.2681 спал
-4.2681 скажет
-4.2681 ухо
-4.2681 иди
-4.2681 многих
-4.2681 написал
-4.2681 благородие
-4.2681 язык
-4.2681 будете
-4.2681 сидела
-4.2681 ю
-4.2681 ваши
-4.2681 видела
-4.2681 андрей
-4.2681 силой
-4.2681 бой
-4.2681 петька
-4.2681 спиной
-4.2681 бумаги
-4.2681 бежать
-4.2681 карташев
-4.2681 глубоко
-4.2681 будь
-4.2681 глядел
-4.2681 рано
-4.2681 носом
-4.2681 дам
-4.2681 этими
-4.2681 столу
-4.2681 слава
-4.2681 прежнему
-4.2681 стене
-4.2681 сторон
-4.2681 чайк
-4.2681 придет
-4.2681 прочим
-4.2681 запах
-4.2681 маленькие
-4.2681 дому
-4.2681 рассказывал
-4.2681 ждать
-4.2681 спрашивал
-4.2681 всякого
-4.2681 вдоль
-4.2681 книга
-4.2681 раздался
-4.2681 думаете
-4.2681 гильчевский
-4.2681 вскочил
-4.2681 наше
-4.2681 жены
-4.2681 мною
-4.2681 напротив
-4.2681 полный
-4.2681 сила
-4.2681 дух
-4.2681 баба
-4.2681 никакой
-4.2681 твоя
-4.2681 благодаря
-4.2681 войну
-4.2681 черной
-4.2681 великий
-4.2681 пальцем
-4.2681 жили
-4.2681 обо
-4.2681 неба
-4.2681 тень
-4.2681 моему
-4.2681 удалось
-4.2681 вашей
-4.2681 имеет
-4.2681 хотела
-4.2681 популярность
-4.2681 женщин
-4.2681 пора
-4.2681 ходили
-4.2681 памяти
-4.2681 трое
-4.2681 ярко
-4.2681 торопливо
-4.2681 мол
-4.2681 посмотреть
-4.2681 вашего
-4.2681 белой
-4.2681 людьми
-4.2681 станции
-4.2681 радости
-4.2681 новой
-4.2681 дождь
-4.2681 николая
-4.2681 крик
-4.2681 горе
-4.2883 высоко
-4.2883 леня
-4.2883 приятно
-4.2883 называется
-4.2883 ворот
-4.2883 де
-4.2883 четырех
-4.2883 ума
-4.2883 лестнице
-4.2883 юлиан
-4.2883 попал
-4.2883 русской
-4.2883 сергеевна
-4.2883 оттого
-4.2883 вскоре
-4.2883 дорога
-4.2883 пишет
-4.2883 которыми
-4.2883 история
-4.2883 кпк
-4.2883 цветы
-4.2883 мире
-4.2883 власть
-4.2883 другу
-4.2883 первым
-4.2883 гости
-4.2883 спину
-4.2883 снял
-4.2883 сидеть
-4.2883 страх
-4.2883 согласился
-4.2883 старался
-4.2883 молодого
-4.2883 холодно
-4.2883 ходу
-4.2883 широко
-4.2883 дверей
-4.2883 небе
-4.2883 недели
-4.2883 чаще
-4.2883 некоторые
-4.2883 правду
-4.2883 схватил
-4.2883 обе
-4.2883 удар
-4.2883 память
-4.2883 учитель
-4.2883 адмирала
-4.2883 строго
-4.2883 самая
-4.2883 остальные
-4.2883 знала
-4.2883 думаешь
-4.2883 зовут
-4.2883 эй
-4.2883 звуки
-4.2883 фронте
-4.2883 обернулся
-4.2883 впечатление
-4.2883 отцу
-4.2883 писатель
-4.2883 понимаете
-4.2883 случайно
-4.2883 показал
-4.2883 шаги
-4.2883 новое
-4.2883 честь
-4.2883 работал
-4.2883 парень
-4.2883 ходит
-4.2883 реки
-4.2883 звали
-4.2883 карман
-4.2883 народа
-4.2883 первая
-4.2883 невозможно
-4.2883 маркушка
-4.2883 очередь
-4.2883 сапоги
-4.2883 ласково
-4.2883 толпы
-4.2883 фронта
-4.2883 ковалевский
-4.2883 ими
-4.2883 кусок
-4.2883 новых
-4.2883 приказ
-4.2883 держал
-4.2883 звезды
-4.2883 девочки
-4.2883 ударил
-4.2883 слушать
-4.2883 сих
-4.2883 камень
-4.2883 русского
-4.2883 русские
-4.2883 пяти
-4.2883 молодая
-4.2883 некогда
-4.2883 марья
-4.2883 жизнью
-4.2883 антоныч
-4.2883 ти
-4.2883 вынул
-4.2883 пойдет
-4.2883 столь
-4.2883 корабля
-4.2883 летом
-4.2883 скучно
-4.2883 небось
-4.2883 леночка
-4.3095 произошло
-4.3095 больно
-4.3095 готов
-4.3095 спрашивает
-4.3095 дым
-4.3095 губами
-4.3095 кстати
-4.3095 твердо
-4.3095 истории
-4.3095 номер
-4.3095 штаба
-4.3095 шаг
-4.3095 имени
-4.3095 кровати
-4.3095 движение
-4.3095 уши
-4.3095 боюсь
-4.3095 дочь
-4.3095 немцы
-4.3095 черными
-4.3095 живой
-4.3095 суд
-4.3095 наталья
-4.3095 незаметно
-4.3095 полчаса
-4.3095 ею
-4.3095 левой
-4.3095 хотели
-4.3095 ольга
-4.3095 желая
-4.3095 повернул
-4.3095 войне
-4.3095 пятьдесят
-4.3095 наверное
-4.3095 власти
-4.3095 искать
-4.3095 окончательно
-4.3095 вести
-4.3095 газеты
-4.3095 каждом
-4.3095 такими
-4.3095 стакан
-4.3095 партии
-4.3095 ответа
-4.3095 правильно
-4.3095 сестра
-4.3095 гм
-4.3095 редко
-4.3095 перебил
-4.3095 представить
-4.3095 оглянулся
-4.3095 причем
-4.3095 вслух
-4.3095 знают
-4.3095 москву
-4.3095 волос
-4.3095 флота
-4.3095 смотря
-4.3095 достаточно
-4.3095 усы
-4.3095 ниже
-4.3095 наверх
-4.3095 смех
-4.3095 отчетливо
-4.3095 больших
-4.3095 каждой
-4.3095 ушла
-4.3095 напрасно
-4.3095 играть
-4.3095 самую
-4.3095 жену
-4.3095 петербург
-4.3095 матвеев
-4.3095 чезаре
-4.3095 села
-4.3095 поспешно
-4.3095 живут
-4.3095 рассказы
-4.3095 маленькой
-4.3095 черных
-4.3095 возразил
-4.3095 красной
-4.3095 жалко
-4.3095 состоянии
-4.3095 картины
-4.3095 джованни
-4.3095 изо
-4.3095 поля
-4.3095 кофе
-4.3095 ровно
-4.3095 ужас
-4.3095 толпе
-4.3095 девушки
-4.3095 страха
-4.3095 кровью
-4.3095 нравится
-4.3095 ценский
-4.3095 царевич
-4.3095 твое
-4.3095 крайней
-4.3095 обеда
-4.3095 веселый
-4.3095 засмеялся
-4.3095 дед
-4.3095 суда
-4.3095 остались
-4.3095 сверху
-4.3095 викниксор
-4.3095 возьми
-4.3095 морской
-4.3095 степанович
-4.3095 ребенок
-4.3095 позвольте
-4.3095 рабочих
-4.3095 сережа
-4.3095 пил
-4.3095 огромный
-4.3095 молодые
-4.3095 генерала
-4.3095 думая
-4.3095 сказано
-4.3095 унтер
-4.3095 ваня
-4.3095 дыхание
-4.3095 сильнее
-4.3318 купить
-4.3318 бежал
-4.3318 собственно
-4.3318 нашли
-4.3318 ребенка
-4.3318 князь
-4.3318 нечто
-4.3318 испуганно
-4.3318 двенадцать
-4.3318 кивнул
-4.3318 стоят
-4.3318 москва
-4.3318 внутри
-4.3318 прав
-4.3318 обыкновенно
-4.3318 идем
-4.3318 автор
-4.3318 большое
-4.3318 золотой
-4.3318 бабушка
-4.3318 васильевна
-4.3318 большого
-4.3318 течение
-4.3318 молчание
-4.3318 считал
-4.3318 стать
-4.3318 принял
-4.3318 здоровье
-4.3318 сергеев
-4.3318 желание
-4.3318 встретил
-4.3318 пахло
-4.3318 очевидно
-4.3318 прочел
-4.3318 улыбка
-4.3318 навсегда
-4.3318 взяла
-4.3318 нескольких
-4.3318 простите
-4.3318 ох
-4.3318 мужик
-4.3318 полной
-4.3318 лежали
-4.3318 сделали
-4.3318 бывший
-4.3318 объяснил
-4.3318 нарочно
-4.3318 горячо
-4.3318 предложил
-4.3318 вино
-4.3318 цвета
-4.3318 просил
-4.3318 уехал
-4.3318 волны
-4.3318 выйдет
-4.3318 план
-4.3318 обращаясь
-4.3318 великого
-4.3318 шоссе
-4.3318 петербурге
-4.3318 лежала
-4.3318 живо
-4.3318 говоришь
-4.3318 зря
-4.3318 длинные
-4.3318 ход
-4.3318 пожал
-4.3318 друзья
-4.3318 ашанин
-4.3318 ногой
-4.3318 спросить
-4.3318 иду
-4.3318 думала
-4.3318 слез
-4.3318 щеки
-4.3318 фигура
-4.3318 огня
-4.3318 черная
-4.3318 квартире
-4.3318 белая
-4.3318 старая
-4.3318 поэт
-4.3318 катер
-4.3318 некоторое
-4.3318 выражение
-4.3318 глухо
-4.3318 легче
-4.3318 длинный
-4.3318 площадь
-4.3318 боли
-4.3318 прошла
-4.3318 молодых
-4.3318 можешь
-4.3318 издали
-4.3318 выйти
-4.3318 старые
-4.3318 понятно
-4.3318 огнем
-4.3318 роман
-4.3318 бабы
-4.3318 корчагин
-4.3318 видя
-4.3318 чувствуя
-4.3318 обед
-4.3318 крики
-4.3318 братцы
-4.3318 штаб
-4.3318 пристально
-4.3318 третьего
-4.3318 жене
-4.3318 показать
-4.3318 правой
-4.3318 деревья
-4.3318 начинает
-4.3318 провел
-4.3318 ряд
-4.3318 появился
-4.3318 понимаешь
-4.3318 компании
-4.3318 хо
-4.3318 лег
-4.3318 чужой
-4.3318 оставалось
-4.3318 деревни
-4.3318 деревне
-4.3318 настоящий
-4.3318 прекрасно
-4.3318 речи
-4.3318 службы
-4.3318 саша
-4.3318 увидев
-4.3318 улицам
-4.3318 помощь
-4.3318 товарищей
-4.3318 сперва
-4.3318 дзержинский
-4.3318 взяли
-4.3318 сне
-4.3318 имею
-4.3318 каждым
-4.3318 махнул
-4.3318 стыдно
-4.3318 зал
-4.3318 орудия
-4.3318 примечания
-4.3318 движения
-4.3318 телом
-4.3318 противника
-4.3318 корпуса
-4.3318 коротко
-4.3318 концов
-4.3318 порядке
-4.3318 дама
-4.3318 местах
-4.3318 боль
-4.3318 боялся
-4.3318 красным
-4.3318 чувства
-4.3318 двора
-4.3318 чрезвычайно
-4.3318 пили
-4.3318 книг
-4.3318 твоей
-4.3318 палубе
-4.3318 далее
-4.3318 десяти
-4.3318 опустил
-4.3318 первую
-4.3318 цветов
-4.3318 сидя
-4.3318 ловко
-4.3318 будьте
-4.3318 скорей
-4.3318 карты
-4.3318 добрый
-4.3318 дает
-4.3318 станет
-4.3318 побежал
-4.3318 верст
-4.3318 класс
-4.3318 пароход
-4.3318 ме
-4.3318 темные
-4.3318 новую
-4.3318 всякой
-4.3318 всяком
-4.3318 смотрите
-4.3318 видал
-4.3318 скажем
-4.3553 старых
-4.3553 ура
-4.3553 глеб
-4.3553 песни
-4.3553 зале
-4.3553 пятнадцать
-4.3553 важно
-4.3553 всяких
-4.3553 линии
-4.3553 чаю
-4.3553 товарища
-4.3553 ворота
-4.3553 учителя
-4.3553 прапорщик
-4.3553 котовский
-4.3553 оставил
-4.3553 принять
-4.3553 ехал
-4.3553 недалеко
-4.3553 водки
-4.3553 барин
-4.3553 матроса
-4.3553 томах
-4.3553 светом
-4.3553 порядок
-4.3553 купил
-4.3553 вошла
-4.3553 виноват
-4.3553 ребят
-4.3553 юноша
-4.3553 столовой
-4.3553 остановились
-4.3553 еле
-4.3553 возможно
-4.3553 касается
-4.3553 стоять
-4.3553 другими
-4.3553 собаки
-4.3553 больной
-4.3553 подошла
-4.3553 ждет
-4.3553 огромные
-4.3553 вещь
-4.3553 любопытством
-4.3553 фамилия
-4.3553 старшего
-4.3553 отошел
-4.3553 проснулся
-4.3553 сестры
-4.3553 месяцев
-4.3553 тщательно
-4.3553 явно
-4.3553 отвечает
-4.3553 алеша
-4.3553 изредка
-4.3553 торжественно
-4.3553 казались
-4.3553 рассказать
-4.3553 большими
-4.3553 позже
-4.3553 обычно
-4.3553 церковь
-4.3553 поставил
-4.3553 потерял
-4.3553 простой
-4.3553 думали
-4.3553 постели
-4.3553 квартиру
-4.3553 времена
-4.3553 борис
-4.3553 жила
-4.3553 твои
-4.3553 говори
-4.3553 немцев
-4.3553 стекла
-4.3553 мгновенно
-4.3553 работе
-4.3553 женщину
-4.3553 голосе
-4.3553 мягко
-4.3553 казался
-4.3553 играл
-4.3553 начале
-4.3553 обоих
-4.3553 удовольствием
-4.3553 бить
-4.3553 болезни
-4.3553 дел
-4.3553 картину
-4.3553 пристани
-4.3553 владимир
-4.3553 кричали
-4.3553 прошли
-4.3553 ушли
-4.3553 историю
-4.3553 главным
-4.3553 прошептал
-4.3553 коля
-4.3553 смысл
-4.3553 шепотом
-4.3553 нынче
-4.3553 нужен
-4.3553 густо
-4.3553 принес
-4.3553 маленькую
-4.3553 дверью
-4.3553 пыль
-4.3553 платок
-4.3553 туман
-4.3553 счет
-4.3553 домов
-4.3553 игра
-4.3553 черту
-4.3553 боя
-4.3553 зубами
-4.3553 женой
-4.3553 получить
-4.3553 убить
-4.3553 револьвер
-4.3553 россию
-4.3553 григорий
-4.3553 увидеть
-4.3553 белыми
-4.3553 кают
-4.3553 сознание
-4.3553 серые
-4.3553 птицы
-4.3553 шапку
-4.3553 начало
-4.3553 явился
-4.3553 поглядел
-4.3553 ничем
-4.3553 чувством
-4.3553 моим
-4.3553 вошли
-4.3553 подал
-4.3553 красных
-4.3553 флаг
-4.3553 сердито
-4.3553 привык
-4.3553 тон
-4.3553 толпу
-4.3553 ста
-4.3553 густой
-4.3553 ногах
-4.3553 грустно
-4.3553 пробормотал
-4.3553 оказалась
-4.3553 писателя
-4.3553 кабинет
-4.3553 елена
-4.3553 японец
-4.3553 прочь
-4.3553 глубине
-4.3553 держать
-4.3553 права
-4.3553 войска
-4.3553 львовна
-4.3553 журнал
-4.3553 собрание
-4.3553 выпил
-4.3553 помочь
-4.3553 какими
-4.3553 петровна
-4.3553 осталась
-4.3553 каждое
-4.3553 спит
-4.3553 знаем
-4.3553 подобно
-4.3553 судьба
-4.3553 трубку
-4.3553 лично
-4.3553 надежда
-4.3553 народу
-4.3553 делом
-4.3553 моем
-4.3553 стул
-4.3553 улыбнулась
-4.3553 обещал
-4.3553 меж
-4.3553 рукою
-4.3553 вера
-4.3553 деревьев
-4.3553 старой
-4.3553 поехал
-4.3553 службу
-4.3553 необыкновенно
-4.3553 сада
-4.3553 бывают
-4.3553 последней
-4.3553 второго
-4.3553 дверях
-4.3553 приходится
-4.3553 картина
-4.3553 играли
-4.3553 корабли
-4.3553 михаил
-4.3553 смешно
-4.3553 спустя
-4.3553 горло
-4.3553 всюду
-4.3553 временем
-4.3553 слышу
-4.3553 крест
-4.3553 необходимо
-4.3553 бою
-4.3553 россия
-4.3553 постепенно
-4.3553 белым
-4.3553 жив
-4.3553 каждую
-4.3553 здорово
-4.3553 художника
-4.3801 вещей
-4.3801 другому
-4.3801 улыбался
-4.3801 делали
-4.3801 флот
-4.3801 новая
-4.3801 маленьких
-4.3801 дайте
-4.3801 вечно
-4.3801 ага
-4.3801 настолько
-4.3801 велел
-4.3801 плотно
-4.3801 искал
-4.3801 ел
-4.3801 полтора
-4.3801 немец
-4.3801 армия
-4.3801 тише
-4.3801 смеясь
-4.3801 федор
-4.3801 вечеру
-4.3801 помощи
-4.3801 маленького
-4.3801 подумать
-4.3801 тяжелые
-4.3801 неподвижно
-4.3801 солнцем
-4.3801 класса
-4.3801 двести
-4.3801 жадно
-4.3801 счастья
-4.3801 нежно
-4.3801 зашел
-4.3801 мыслей
-4.3801 милая
-4.3801 музыка
-4.3801 золото
-4.3801 головою
-4.3801 брусилов
-4.3801 соч
-4.3801 слабо
-4.3801 знакомый
-4.3801 берет
-4.3801 лбу
-4.3801 хватит
-4.3801 роль
-4.3801 уверен
-4.3801 можем
-4.3801 начальника
-4.3801 окну
-4.3801 волосами
-4.3801 справа
-4.3801 послал
-4.3801 дамы
-4.3801 нету
-4.3801 судов
-4.3801 поручик
-4.3801 наташа
-4.3801 рассказывать
-4.3801 служил
-4.3801 красными
-4.3801 ожидал
-4.3801 белье
-4.3801 комната
-4.3801 благодарю
-4.3801 века
-4.3801 портрет
-4.3801 проговорила
-4.3801 девять
-4.3801 цели
-4.3801 образ
-4.3801 духа
-4.3801 гостей
-4.3801 кости
-4.3801 врач
-4.3801 собр
-4.3801 остановилась
-4.3801 городу
-4.3801 газету
-4.3801 никуда
-4.3801 даст
-4.3801 похож
-4.3801 надеюсь
-4.3801 языком
-4.3801 окном
-4.3801 объяснить
-4.3801 реке
-4.3801 верю
-4.3801 пред
-4.3801 кармана
-4.3801 поняли
-4.3801 тихий
-4.3801 написать
-4.3801 ужасно
-4.3801 смехом
-4.3801 луна
-4.3801 борт
-4.3801 москвы
-4.3801 увидал
-4.3801 костя
-4.3801 лиц
-4.3801 белом
-4.3801 заявил
-4.3801 снизу
-4.3801 последнего
-4.3801 деревню
-4.3801 есенин
-4.3801 задумчиво
-4.3801 хозяина
-4.3801 хотят
-4.3801 детства
-4.3801 машины
-4.3801 исчез
-4.3801 дерево
-4.3801 ящик
-4.3801 глазам
-4.3801 неловко
-4.3801 передать
-4.3801 золотые
-4.3801 началась
-4.3801 значительно
-4.3801 трубы
-4.3801 остановил
-4.3801 отдал
-4.3801 наверно
-4.3801 кашнев
-4.3801 начинал
-4.3801 настроение
-4.3801 падали
-4.3801 заметив
-4.3801 казалась
-4.3801 целую
-4.3801 ждали
-4.3801 нужны
-4.3801 разговоры
-4.3801 обязательно
-4.3801 рабочие
-4.3801 отряд
-4.3801 илья
-4.3801 ленин
-4.3801 перестал
-4.3801 новым
-4.3801 самим
-4.3801 вел
-4.3801 край
-4.3801 здравствуйте
-4.3801 движением
-4.3801 словах
-4.3801 считать
-4.3801 вопросы
-4.3801 посмотрела
-4.3801 поняла
-4.3801 коня
-4.3801 палубу
-4.3801 се
-4.3801 боцман
-4.3801 спине
-4.3801 состояние
-4.3801 черного
-4.3801 возможности
-4.3801 написано
-4.3801 надежды
-4.3801 ветра
-4.3801 идите
-4.3801 насколько
-4.3801 ишь
-4.3801 максим
-4.3801 вдали
-4.3801 воли
-4.3801 чей
-4.3801 врага
-4.3801 р
-4.3801 интересно
-4.3801 приходил
-4.3801 палец
-4.3801 положения
-4.3801 слева
-4.3801 бежали
-4.3801 приходит
-4.3801 страны
-4.3801 черным
-4.3801 вашу
-4.3801 пытался
-4.3801 ужаса
-4.3801 едет
-4.3801 рассмеялся
-4.3801 спрашиваю
-4.3801 революция
-4.3801 подняв
-4.3801 тонкие
-4.3801 сделала
-4.3801 темной
-4.3801 всякие
-4.3801 нигде
-4.3801 стоя
-4.3801 нашу
-4.3801 желтые
-4.3801 камни
-4.3801 пойти
-4.3801 поднялась
-4.3801 степени
-4.3801 отправился
-4.3801 убил
-4.3801 тему
-4.3801 братец
-4.3801 шагом
-4.3801 общем
-4.3801 нужна
-4.3801 словам
-4.3801 окон
-4.3801 тоска
-4.3801 вполголоса
-4.3801 делается
-4.3801 голубчик
-4.3801 тяжелый
-4.3801 остается
-4.3801 понимает
-4.3801 отцом
-4.3801 толстой
-4.3801 смеется
-4.3801 военных
-4.3801 судно
-4.3801 орудий
-4.3801 ми
-4.3801 заметно
-4.3801 чисто
-4.3801 множество
-4.3801 слезами
-4.3801 давал
-4.3801 появились
-4.3801 улица
-4.3801 решили
-4.3801 ответить
-4.3801 стрелять
-4.3801 поцеловал
-4.3801 смеялся
-4.3801 мост
-4.3801 снегу
-4.3801 полку
-4.3801 петра
-4.3801 стр
-4.3801 первом
-4.3801 ели
-4.3801 наверху
-4.3801 заранее
-4.3801 золотом
-4.3801 звонок
-4.3801 впоследствии
-4.3801 хе
-4.3801 закрыл
-4.3801 ожидая
-4.3801 светло
-4.3801 поговорить
-4.3801 уверенно
-4.3801 немножко
-4.3801 само
-4.3801 становилось
-4.3801 христа
-4.4064 хорошего
-4.4064 охотно
-4.4064 иной
-4.4064 мая
-4.4064 шумно
-4.4064 вернее
-4.4064 смутно
-4.4064 лениво
-4.4064 показался
-4.4064 стук
-4.4064 упала
-4.4064 сущности
-4.4064 доктора
-4.4064 севастополь
-4.4064 ливенцева
-4.4064 бледный
-4.4064 улицах
-4.4064 слушая
-4.4064 черта
-4.4064 река
-4.4064 пели
-4.4064 указал
-4.4064 головами
-4.4064 ходят
-4.4064 стране
-4.4064 ключ
-4.4064 пьяный
-4.4064 лето
-4.4064 зло
-4.4064 пристав
-4.4064 володька
-4.4064 дерябин
-4.4064 чайкина
-4.4064 облака
-4.4064 тетя
-4.4064 хвост
-4.4064 знак
-4.4064 театр
-4.4064 шинели
-4.4064 ныне
-4.4064 захотелось
-4.4064 похоже
-4.4064 называл
-4.4064 боится
-4.4064 дескать
-4.4064 полиции
-4.4064 господь
-4.4064 ивановна
-4.4064 следующий
-4.4064 осенью
-4.4064 направо
-4.4064 прошлом
-4.4064 сотни
-4.4064 успели
-4.4064 кончил
-4.4064 умел
-4.4064 вашему
-4.4064 читает
-4.4064 встречи
-4.4064 шее
-4.4064 одновременно
-4.4064 удивленно
-4.4064 бежит
-4.4064 лодку
-4.4064 граф
-4.4064 андреевич
-4.4064 белого
-4.4064 глазом
-4.4064 влево
-4.4064 делают
-4.4064 снега
-4.4064 рота
-4.4064 решетников
-4.4064 полным
-4.4064 угла
-4.4064 характер
-4.4064 налево
-4.4064 ваших
-4.4064 спали
-4.4064 шло
-4.4064 снаряды
-4.4064 моряки
-4.4064 император
-4.4064 полная
-4.4064 двадцати
-4.4064 сунул
-4.4064 оставить
-4.4064 дерева
-4.4064 нашем
-4.4064 страшный
-4.4064 поклонился
-4.4064 хозяйка
-4.4064 упорно
-4.4064 красная
-4.4064 каждому
-4.4064 назвал
-4.4064 птица
-4.4064 звук
-4.4064 верить
-4.4064 железной
-4.4064 языке
-4.4064 любовью
-4.4064 вытащил
-4.4064 сердцем
-4.4064 страшное
-4.4064 принялся
-4.4064 богом
-4.4064 батюшка
-4.4064 ильич
-4.4064 жарко
-4.4064 следовало
-4.4064 сидят
-4.4064 поди
-4.4064 накануне
-4.4064 воздуха
-4.4064 зеленые
-4.4064 бумагу
-4.4064 покачал
-4.4064 роста
-4.4064 тепло
-4.4064 нож
-4.4064 военный
-4.4064 убили
-4.4064 боевой
-4.4064 публика
-4.4064 краю
-4.4064 уходил
-4.4064 брать
-4.4064 слушай
-4.4064 останется
-4.4064 бывал
-4.4064 играет
-4.4064 кровать
-4.4064 оказались
-4.4064 увидела
-4.4064 заметила
-4.4064 штурман
-4.4064 фома
-4.4064 корвет
-4.4064 черном
-4.4064 подхватил
-4.4064 твоего
-4.4064 числе
-4.4064 сего
-4.4064 шагах
-4.4064 держа
-4.4064 подошли
-4.4064 кусты
-4.4064 широкой
-4.4064 нашим
-4.4064 умереть
-4.4064 признаться
-4.4064 кухню
-4.4064 днях
-4.4064 студент
-4.4064 паруса
-4.4064 пе
-4.4064 перешел
-4.4064 дыма
-4.4064 вторая
-4.4064 даром
-4.4064 цепь
-4.4064 лодка
-4.4064 дворца
-4.4064 пыли
-4.4064 ничто
-4.4064 алексея
-4.4064 тави
-4.4064 дунаев
-4.4064 кричать
-4.4064 показалась
-4.4064 будучи
-4.4064 задумался
-4.4064 тесно
-4.4064 машина
-4.4064 повести
-4.4064 гимназии
-4.4064 германии
-4.4064 мотовилов
-4.4064 целые
-4.4064 звон
-4.4064 хорошие
-4.4064 главе
-4.4064 вагона
-4.4064 ивана
-4.4064 снарядов
-4.4064 поставить
-4.4064 бок
-4.4064 нервно
-4.4064 мрачно
-4.4064 приехали
-4.4064 помните
-4.4064 ку
-4.4064 сан
-4.4064 катера
-4.4064 мю
-4.4064 странное
-4.4064 низко
-4.4064 смертью
-4.4064 вспомнить
-4.4064 сердцу
-4.4064 чувств
-4.4064 тишине
-4.4064 пули
-4.4064 давайте
-4.4064 школы
-4.4064 поп
-4.4064 иванов
-4.4064 батальон
-4.4064 сильный
-4.4064 вне
-4.4064 вспоминал
-4.4064 свободно
-4.4064 ветром
-4.4064 вида
-4.4064 возможность
-4.4064 ночам
-4.4064 рыжика
-4.4064 фигуры
-4.4064 мысленно
-4.4064 нашему
-4.4064 сна
-4.4064 появилась
-4.4064 большом
-4.4064 наоборот
-4.4064 началось
-4.4064 частью
-4.4064 капли
-4.4064 годов
-4.4064 достал
-4.4064 бил
-4.4064 высокой
-4.4064 синие
-4.4064 извините
-4.4064 били
-4.4064 поводу
-4.4064 просить
-4.4064 сообщил
-4.4064 спеша
-4.4064 комиссар
-4.4064 зайцев
-4.4064 христофоров
-4.4064 легкий
-4.4064 красивый
-4.4064 встала
-4.4064 повел
-4.4064 живот
-4.4064 окнами
-4.4064 семьи
-4.4064 мнению
-4.4064 книжку
-4.4064 завод
-4.4064 братья
-4.4064 крепости
-4.4064 васька
-4.4064 сели
-4.4064 присел
-4.4064 огромной
-4.4064 родной
-4.4064 молчали
-4.4064 вдвоем
-4.4064 нехорошо
-4.4064 четвертый
-4.4064 рыжий
-4.4064 часу
-4.4064 оказывается
-4.4064 кабинете
-4.4064 удовольствие
-4.4064 следил
-4.4064 пришло
-4.4064 сказав
-4.4064 служить
-4.4064 отдать
-4.4064 смотрю
-4.4064 вели
-4.4064 каюту
-4.4345 холодной
-4.4345 случаях
-4.4345 книге
-4.4345 забыть
-4.4345 смотрят
-4.4345 представил
-4.4345 кухне
-4.4345 добродушно
-4.4345 вагон
-4.4345 дьявол
-4.4345 мичман
-4.4345 кулаком
-4.4345 положении
-4.4345 прийти
-4.4345 рта
-4.4345 помнил
-4.4345 итак
-4.4345 сторонам
-4.4345 удивлением
-4.4345 глупости
-4.4345 мешок
-4.4345 верхом
-4.4345 сведения
-4.4345 калугин
-4.4345 мужчина
-4.4345 кармане
-4.4345 хорошее
-4.4345 гул
-4.4345 стен
-4.4345 слышали
-4.4345 службе
-4.4345 кладбище
-4.4345 купец
-4.4345 степан
-4.4345 триста
-4.4345 сознания
-4.4345 устал
-4.4345 губ
-4.4345 название
-4.4345 происходит
-4.4345 секунду
-4.4345 сном
-4.4345 чувствую
-4.4345 девушку
-4.4345 солдата
-4.4345 почем
-4.4345 коли
-4.4345 винтовки
-4.4345 обыкновению
-4.4345 случаю
-4.4345 сбоку
-4.4345 становится
-4.4345 начать
-4.4345 кой
-4.4345 указывая
-4.4345 классе
-4.4345 лаврентьев
-4.4345 затылок
-4.4345 бросить
-4.4345 след
-4.4345 сухой
-4.4345 вверху
-4.4345 нетерпеливо
-4.4345 выходил
-4.4345 слышать
-4.4345 вправо
-4.4345 имели
-4.4345 края
-4.4345 любила
-4.4345 моряков
-4.4345 корабле
-4.4345 разговора
-4.4345 презрительно
-4.4345 толстый
-4.4345 недолго
-4.4345 несомненно
-4.4345 ужасом
-4.4345 шляпу
-4.4345 говорится
-4.4345 дождя
-4.4345 называли
-4.4345 остаться
-4.4345 прощай
-4.4345 высоты
-4.4345 болезнь
-4.4345 цепи
-4.4345 театре
-4.4345 поезда
-4.4345 полковника
-4.4345 нередко
-4.4345 полфунта
-4.4345 нюра
-4.4345 существо
-4.4345 носу
-4.4345 попасть
-4.4345 многое
-4.4345 умерла
-4.4345 красного
-4.4345 выстрел
-4.4345 родился
-4.4345 передал
-4.4345 нисколько
-4.4345 грязи
-4.4345 любить
-4.4345 промолвил
-4.4345 поднять
-4.4345 черную
-4.4345 понимая
-4.4345 слышишь
-4.4345 старичок
-4.4345 самсона
-4.4345 шестьдесят
-4.4345 холодный
-4.4345 середине
-4.4345 удивительно
-4.4345 уходит
-4.4345 попросил
-4.4345 плакать
-4.4345 небу
-4.4345 очереди
-4.4345 лодки
-4.4345 раненых
-4.4345 машура
-4.4345 сочинений
-4.4345 волнение
-4.4345 коленях
-4.4345 подходит
-4.4345 увидели
-4.4345 смысле
-4.4345 бегут
-4.4345 оружие
-4.4345 село
-4.4345 подумала
-4.4345 дворец
-4.4345 майор
-4.4345 пройти
-4.4345 неприятно
-4.4345 рода
-4.4345 последних
-4.4345 цвет
-4.4345 вблизи
-4.4345 военного
-4.4345 обедом
-4.4345 команда
-4.4345 спирька
-4.4345 высокая
-4.4345 хорошая
-4.4345 враг
-4.4345 зимой
-4.4345 общества
-4.4345 квартиры
-4.4345 наиболее
-4.4345 ум
-4.4345 входа
-4.4345 стояло
-4.4345 большей
-4.4345 плакал
-4.4345 благополучно
-4.4345 плачет
-4.4345 совет
-4.4345 твою
-4.4345 природы
-4.4345 дочери
-4.4345 кресло
-4.4345 дрова
-4.4345 учиться
-4.4345 горн
-4.4345 пустяки
-4.4345 крыши
-4.4345 труд
-4.4345 давали
-4.4345 кончено
-4.4345 бороду
-4.4345 гляди
-4.4345 слушаю
-4.4345 фуражку
-4.4345 полном
-4.4345 тонкий
-4.4345 взяв
-4.4345 испугался
-4.4345 вздрогнул
-4.4345 странный
-4.4345 полагается
-4.4345 детстве
-4.4345 стекло
-4.4345 отношения
-4.4345 занят
-4.4345 единственный
-4.4345 ежедневно
-4.4345 стой
-4.4345 романа
-4.4345 войск
-4.4345 корнилов
-4.4345 берендя
-4.4345 случалось
-4.4345 встать
-4.4345 зеленой
-4.4345 бутылку
-4.4345 усами
-4.4345 школе
-4.4345 школу
-4.4345 король
-4.4345 государь
-4.4345 стоило
-4.4345 подумав
-4.4345 круг
-4.4345 кинулся
-4.4345 тревожно
-4.4345 стену
-4.4345 последнюю
-4.4345 платья
-4.4345 вернуться
-4.4345 тихим
-4.4345 прощайте
-4.4345 главный
-4.4345 гор
-4.4345 закон
-4.4345 гость
-4.4345 командиру
-4.4345 петя
-4.4345 батальона
-4.4345 семенович
-4.4345 труда
-4.4345 мясо
-4.4345 узнали
-4.4345 тумане
-4.4345 связи
-4.4345 подняла
-4.4345 отказался
-4.4345 десятки
-4.4345 работали
-4.4345 действия
-4.4345 представьте
-4.4345 повесть
-4.4345 нахимов
-4.4345 полное
-4.4345 волнения
-4.4345 боясь
-4.4345 четверть
-4.4345 борьбы
-4.4345 смеха
-4.4345 большинство
-4.4345 тихонько
-4.4345 записку
-4.4345 кораблей
-4.4345 степи
-4.4345 франции
-4.4345 христос
-4.4345 огонек
-4.4345 звонко
-4.4345 выражением
-4.4345 цветами
-4.4345 опасности
-4.4345 плечу
-4.4345 половину
-4.4345 работой
-4.4345 догадался
-4.4345 слушайте
-4.4345 жутко
-4.4345 нина
-4.4345 герцог
-4.4345 грудью
-4.4345 голубые
-4.4345 синий
-4.4345 пахнет
-4.4345 пьян
-4.4345 волю
-4.4345 ай
-4.4345 столовую
-4.4345 ряды
-4.4345 месту
-4.4345 точки
-4.4345 помолчал
-4.4345 опустив
-4.4345 постоянно
-4.4345 бутылки
-4.4345 своя
-4.4345 глупо
-4.4345 собирался
-4.4345 направился
-4.4345 ждала
-4.4345 слыхал
-4.4345 поет
-4.4345 грех
-4.4345 темы
-4.4345 лейтенанта
-4.4345 маленьким
-4.4345 вечерам
-4.4345 верил
-4.4345 работает
-4.4345 зеленый
-4.4345 молодости
-4.4345 грязь
-4.4345 обрадовался
-4.4345 весна
-4.4345 порой
-4.4345 че
-4.4345 марии
-4.4345 ливенцеву
-4.4345 пара
-4.4345 замолчал
-4.4345 удара
-4.4345 темный
-4.4345 красное
-4.4345 голубой
-4.4345 покраснел
-4.4345 нашла
-4.4345 уходить
-4.4345 фамилии
-4.4345 лист
-4.4345 желаю
-4.4345 бедный
-4.4345 бумажку
-4.4345 друзей
-4.4345 плакала
-4.4345 искусства
-4.4345 недаром
-4.4345 старики
-4.4345 сделалось
-4.4345 притом
-4.4345 ф
-4.4345 борта
-4.4345 мамочка
-4.4345 корнева
-4.4345 черное
-4.4345 душой
-4.4345 каждая
-4.4345 землей
-4.4345 насмешливо
-4.4345 седой
-4.4345 спустился
-4.4345 времен
-4.4345 заснул
-4.4345 рабочий
-4.4345 тучи
-4.4345 автора
-4.4345 аллах
-4.4345 октября
-4.4345 траву
-4.4345 форме
-4.4345 тяжелой
-4.4345 тоски
-4.4345 понимать
-4.4345 любят
-4.4345 зверь
-4.4345 послушайте
-4.4345 пятна
-4.4345 отчасти
-4.4345 пел
-4.4345 факт
-4.4345 девочку
-4.4345 тюрьмы
-4.4345 пламя
-4.4345 русски
-4.4345 окопы
-4.4345 геник
-4.4345 какому
-4.4345 ночной
-4.4345 желания
-4.4345 представлял
-4.4345 криком
-4.4345 широкий
-4.4345 является
-4.4345 читали
-4.4345 листья
-4.4345 помнишь
-4.4345 команды
-4.4345 святой
-4.4345 св
-4.4345 виктор
-4.4345 ливитин
-4.4345 ногам
-4.4345 усилием
-4.4345 тысячу
-4.4345 праздник
-4.4345 ходила
-4.4345 глядеть
-4.4345 золотых
-4.4345 равнодушно
-4.4345 фамилию
-4.4345 умеет
-4.4345 радостью
-4.4345 молодец
-4.4345 моста
-4.4345 воля
-4.4345 армию
-4.4345 командиром
-4.4345 мария
-4.4345 дабы
-4.4345 михайловна
-4.4644 оставив
-4.4644 языка
-4.4644 решение
-4.4644 сухо
-4.4644 пройдет
-4.4644 шести
-4.4644 смеяться
-4.4644 продолжала
-4.4644 беда
-4.4644 коридор
-4.4644 литературы
-4.4644 объявил
-4.4644 никодима
-4.4644 сесть
-4.4644 одних
-4.4644 подходил
-4.4644 выскочил
-4.4644 выходило
-4.4644 мужчины
-4.4644 сапог
-4.4644 песню
-4.4644 гроб
-4.4644 начальство
-4.4644 морского
-4.4644 открыть
-4.4644 фигуру
-4.4644 взгляда
-4.4644 серый
-4.4644 страхом
-4.4644 некуда
-4.4644 стремительно
-4.4644 возьмите
-4.4644 костюм
-4.4644 настоящему
-4.4644 обедать
-4.4644 события
-4.4644 пожар
-4.4644 ожидании
-4.4644 ак
-4.4644 миг
-4.4644 лодке
-4.4644 ма
-4.4644 настоящее
-4.4644 сорока
-4.4644 заставил
-4.4644 длинными
-4.4644 одинаково
-4.4644 врагов
-4.4644 отвернулся
-4.4644 бородой
-4.4644 общество
-4.4644 горит
-4.4644 замок
-4.4644 русская
-4.4644 крылья
-4.4644 сладко
-4.4644 поэта
-4.4644 богов
-4.4644 полезнов
-4.4644 глухой
-4.4644 ведет
-4.4644 пар
-4.4644 белое
-4.4644 высоких
-4.4644 игры
-4.4644 хвостом
-4.4644 зеркало
-4.4644 робко
-4.4644 лестницы
-4.4644 убит
-4.4644 свечи
-4.4644 самовар
-4.4644 матерью
-4.4644 звезда
-4.4644 корпус
-4.4644 действий
-4.4644 мужики
-4.4644 павла
-4.4644 кароли
-4.4644 делая
-4.4644 пальцев
-4.4644 начался
-4.4644 назвать
-4.4644 привел
-4.4644 мелкие
-4.4644 нервы
-4.4644 покорно
-4.4644 выпить
-4.4644 просит
-4.4644 ехали
-4.4644 половина
-4.4644 именем
-4.4644 доски
-4.4644 полно
-4.4644 негромко
-4.4644 замуж
-4.4644 набережной
-4.4644 совесть
-4.4644 офицеру
-4.4644 мессер
-4.4644 захотел
-4.4644 помолчав
-4.4644 позади
-4.4644 взялся
-4.4644 снегом
-4.4644 молчит
-4.4644 глядит
-4.4644 профессор
-4.4644 князя
-4.4644 чужие
-4.4644 собрались
-4.4644 рыбу
-4.4644 вашим
-4.4644 еду
-4.4644 легкие
-4.4644 семья
-4.4644 узнав
-4.4644 прости
-4.4644 папиросу
-4.4644 имея
-4.4644 газете
-4.4644 прелесть
-4.4644 молоко
-4.4644 леонид
-4.4644 шинель
-4.4644 батареи
-4.4644 гез
-4.4644 марта
-4.4644 апреля
-4.4644 одиннадцать
-4.4644 похожий
-4.4644 ушах
-4.4644 концу
-4.4644 поднялись
-4.4644 страшная
-4.4644 забыли
-4.4644 возьму
-4.4644 цель
-4.4644 дала
-4.4644 живу
-4.4644 повторял
-4.4644 гостиницы
-4.4644 лед
-4.4644 шапки
-4.4644 стеной
-4.4644 честное
-4.4644 улыбку
-4.4644 длинной
-4.4644 готово
-4.4644 пьет
-4.4644 слушали
-4.4644 луч
-4.4644 позиции
-4.4644 казаки
-4.4644 тридцати
-4.4644 пустой
-4.4644 новом
-4.4644 тяжелым
-4.4644 темных
-4.4644 рукав
-4.4644 чужих
-4.4644 живое
-4.4644 мозг
-4.4644 подарок
-4.4644 вовремя
-4.4644 заглянул
-4.4644 правую
-4.4644 погиб
-4.4644 болен
-4.4644 смеялись
-4.4644 охотник
-4.4644 бывали
-4.4644 ком
-4.4644 сволочь
-4.4644 временам
-4.4644 севастополя
-4.4644 дрок
-4.4644 платком
-4.4644 серой
-4.4644 замечал
-4.4644 тонкой
-4.4644 знакомых
-4.4644 левую
-4.4644 живых
-4.4644 путем
-4.4644 глубокой
-4.4644 сделался
-4.4644 вор
-4.4644 часовой
-4.4644 телефону
-4.4644 зина
-4.4644 высокие
-4.4644 судьбы
-4.4644 морю
-4.4644 сошел
-4.4644 дне
-4.4644 надоело
-4.4644 герой
-4.4644 слышит
-4.4644 умею
-4.4644 мнение
-4.4644 газетах
-4.4644 номера
-4.4644 твоих
-4.4644 слышала
-4.4644 извозчик
-4.4644 па
-4.4644 курс
-4.4644 министр
-4.4644 наступление
-4.4644 дзержинского
-4.4644 век
-4.4644 дышать
-4.4644 тремя
-4.4644 начинается
-4.4644 кверху
-4.4644 выдержал
-4.4644 собственной
-4.4644 доволен
-4.4644 подняли
-4.4644 искусство
-4.4644 больного
-4.4644 мяса
-4.4644 ружье
-4.4644 совести
-4.4644 судить
-4.4644 чудо
-4.4644 вокзала
-4.4644 тетка
-4.4644 успех
-4.4644 выходили
-4.4644 свежий
-4.4644 белую
-4.4644 остальных
-4.4644 плечах
-4.4644 снять
-4.4644 известный
-4.4644 сожалению
-4.4644 срок
-4.4644 малый
-4.4644 отвечать
-4.4644 получив
-4.4644 литературе
-4.4644 горький
-4.4644 лев
-4.4644 полиция
-4.4644 ла
-4.4644 василия
-4.4644 каюте
-4.4644 тихон
-4.4644 полные
-4.4644 блеск
-4.4644 дают
-4.4644 холода
-4.4644 угрюмо
-4.4644 свидания
-4.4644 ждут
-4.4644 пожилой
-4.4644 мечтал
-4.4644 сумерки
-4.4644 заниматься
-4.4644 кричала
-4.4644 билет
-4.4644 як
-4.4644 герцога
-4.4644 дрожали
-4.4644 адрес
-4.4644 холод
-4.4644 сутки
-4.4644 вопроса
-4.4644 борода
-4.4644 согласен
-4.4644 диване
-4.4644 огни
-4.4644 остров
-4.4644 господина
-4.4644 котовского
-4.4644 некоторых
-4.4644 толстые
-4.4644 впечатления
-4.4644 песок
-4.4644 чаем
-4.4644 спала
-4.4644 находится
-4.4644 морем
-4.4644 делам
-4.4644 делах
-4.4644 ужасе
-4.4644 члены
-4.4644 пойдемте
-4.4644 коршун
-4.4644 долларов
-4.4644 июля
-4.4644 нагнулся
-4.4644 надел
-4.4644 сделав
-4.4644 вторую
-4.4644 громче
-4.4644 такому
-4.4644 будущее
-4.4644 круто
-4.4644 имела
-4.4644 молодым
-4.4644 посмотри
-4.4644 бросилась
-4.4644 театра
-4.4644 статьи
-4.4644 военные
-4.4644 уголь
-4.4644 маруся
-4.4644 прямой
-4.4644 скрылся
-4.4644 подбородок
-4.4644 целью
-4.4644 исчезла
-4.4644 выхода
-4.4644 ощущение
-4.4644 носил
-4.4644 выходу
-4.4644 подобных
-4.4644 отдыха
-4.4644 умный
-4.4644 увидит
-4.4644 взглянуть
-4.4644 закончил
-4.4644 писали
-4.4644 собаку
-4.4644 деньгами
-4.4644 барышня
-4.4644 копеек
-4.4644 винтовку
-4.4644 полки
-4.4644 советской
-4.4644 петербурга
-4.4644 капитану
-4.4644 михайлович
-4.4644 ударом
-4.4644 теми
-4.4644 начиная
-4.4644 круглые
-4.4644 войти
-4.4644 усиленно
-4.4644 давать
-4.4644 широкие
-4.4644 ручку
-4.4644 подальше
-4.4644 гору
-4.4644 соседней
-4.4644 колеса
-4.4644 вернулась
-4.4644 любили
-4.4644 газет
-4.4644 действовать
-4.4644 пакет
-4.4644 штабе
-4.4644 императора
-4.4644 леньку
-4.4644 марко
-4.4644 двинулся
-4.4644 оставили
-4.4644 рассеянно
-4.4644 быстрее
-4.4644 блеском
-4.4644 остальное
-4.4644 странным
-4.4644 секунд
-4.4644 огромная
-4.4644 брал
-4.4644 пользу
-4.4644 участие
-4.4644 хлебом
-4.4644 водку
-4.4644 шепнул
-4.4644 диван
-4.4644 видать
-4.4644 моро
-4.4644 огромное
-4.4644 знакомые
-4.4644 колен
-4.4644 последним
-4.4644 взглянув
-4.4644 траве
-4.4644 привести
-4.4644 оставаться
-4.4644 страшные
-4.4644 ездил
-4.4644 чувствует
-4.4644 узнала
-4.4644 горели
-4.4644 вернулись
-4.4644 пояс
-4.4644 глядели
-4.4644 травы
-4.4644 стенах
-4.4644 послушай
-4.4644 окопов
-4.4644 число
-4.4644 рассматривая
-4.4644 тяжелая
-4.4644 легким
-4.4644 отдохнуть
-4.4644 обратил
-4.4644 зрения
-4.4644 сделано
-4.4644 общий
-4.4644 теле
-4.4644 третья
-4.4644 привез
-4.4644 сомнения
-4.4644 камня
-4.4644 направлении
-4.4644 погода
-4.4644 помещение
-4.4644 попали
-4.4644 голосов
-4.4644 гром
-4.4644 рыба
-4.4644 коридоре
-4.4644 страна
-4.4644 костер
-4.4644 гостиной
-4.4644 мальчишка
-4.4644 табак
-4.4644 полей
-4.4644 ступай
-4.4644 печи
-4.4644 роту
-4.4644 севастополе
-4.4644 павка
-4.4644 азефа
-4.4644 издательство
-4.4644 вплотную
-4.4644 достать
-4.4644 пространство
-4.4644 краски
-4.4644 зала
-4.4644 победы
-4.4644 маленькими
-4.4644 мягкий
-4.4644 прошлое
-4.4644 мрак
-4.4644 одетый
-4.4644 исключительно
-4.4644 городской
-4.4644 тишину
-4.4644 поступил
-4.4644 собак
-4.4644 игру
-4.4644 штаны
-4.4644 обнял
-4.4644 бормотал
-4.4644 острова
-4.4644 выстрелы
-4.4644 сыну
-4.4644 ы
-4.4644 антонина
-4.4966 оглядываясь
-4.4966 задыхаясь
-4.4966 случая
-4.4966 сделаю
-4.4966 трава
-4.4966 шагу
-4.4966 посмотрите
-4.4966 пару
-4.4966 существует
-4.4966 страсть
-4.4966 подобное
-4.4966 выход
-4.4966 третьей
-4.4966 вопросом
-4.4966 обеих
-4.4966 голые
-4.4966 брось
-4.4966 взглянула
-4.4966 гостинице
-4.4966 вокзал
-4.4966 мороз
-4.4966 миллионов
-4.4966 бо
-4.4966 роте
-4.4966 меценат
-4.4966 биче
-4.4966 вспомнив
-4.4966 жалобно
-4.4966 шеи
-4.4966 темная
-4.4966 удовольствия
-4.4966 выйдя
-4.4966 сплошь
-4.4966 штука
-4.4966 всякое
-4.4966 улыбается
-4.4966 отвечала
-4.4966 вагоне
-4.4966 любишь
-4.4966 компания
-4.4966 семен
-4.4966 дивизия
-4.4966 маленькое
-4.4966 отношение
-4.4966 аккуратно
-4.4966 дадут
-4.4966 воспоминания
-4.4966 окне
-4.4966 разу
-4.4966 обидно
-4.4966 считая
-4.4966 учился
-4.4966 шире
-4.4966 думают
-4.4966 долг
-4.4966 крыльями
-4.4966 губернии
-4.4966 волна
-4.4966 служба
-4.4966 инженер
-4.4966 колено
-4.4966 охота
-4.4966 напряженно
-4.4966 последняя
-4.4966 лицами
-4.4966 кричат
-4.4966 кресле
-4.4966 прекрасный
-4.4966 находил
-4.4966 вином
-4.4966 спасти
-4.4966 занимался
-4.4966 селе
-4.4966 завода
-4.4966 военной
-4.4966 команду
-4.4966 глядела
-4.4966 законы
-4.4966 писателей
-4.4966 телеграмму
-4.4966 моряк
-4.4966 цк
-4.4966 боги
-4.4966 аглаида
-4.4966 насквозь
-4.4966 пробовал
-4.4966 высокого
-4.4966 ножом
-4.4966 торопясь
-4.4966 человеке
-4.4966 разом
-4.4966 подойдя
-4.4966 силах
-4.4966 взгляды
-4.4966 кухни
-4.4966 узнает
-4.4966 семье
-4.4966 постель
-4.4966 готовы
-4.4966 борьбе
-4.4966 часам
-4.4966 роли
-4.4966 высоте
-4.4966 русским
-4.4966 розы
-4.4966 республики
-4.4966 флоте
-4.4966 ве
-4.4966 леньке
-4.4966 июня
-4.4966 нога
-4.4966 заметили
-4.4966 черты
-4.4966 требует
-4.4966 мальчишки
-4.4966 следующее
-4.4966 вторых
-4.4966 входит
-4.4966 странная
-4.4966 увидишь
-4.4966 очутился
-4.4966 уме
-4.4966 улиц
-4.4966 находился
-4.4966 фу
-4.4966 старому
-4.4966 молодежь
-4.4966 семьдесят
-4.4966 оставался
-4.4966 одеяло
-4.4966 проходит
-4.4966 подробно
-4.4966 вой
-4.4966 пешком
-4.4966 границу
-4.4966 шляпе
-4.4966 наблюдал
-4.4966 послать
-4.4966 бросились
-4.4966 ого
-4.4966 старшему
-4.4966 кожух
-4.4966 блестели
-4.4966 живые
-4.4966 привычке
-4.4966 улыбки
-4.4966 слух
-4.4966 веселым
-4.4966 носа
-4.4966 вспоминая
-4.4966 красиво
-4.4966 будущем
-4.4966 восторг
-4.4966 дошел
-4.4966 посмотрим
-4.4966 бьют
-4.4966 искренне
-4.4966 грохот
-4.4966 проводил
-4.4966 здравствуй
-4.4966 брату
-4.4966 журнала
-4.4966 офицером
-4.4966 мо
-4.4966 нок
-4.4966 степановна
-4.4966 теплый
-4.4966 упор
-4.4966 событий
-4.4966 целая
-4.4966 петь
-4.4966 разговаривать
-4.4966 заметить
-4.4966 вернется
-4.4966 новому
-4.4966 зима
-4.4966 получили
-4.4966 успела
-4.4966 исподлобья
-4.4966 сделает
-4.4966 садитесь
-4.4966 приехала
-4.4966 голод
-4.4966 рев
-4.4966 немало
-4.4966 извозчика
-4.4966 гибель
-4.4966 дедушка
-4.4966 шлюпки
-4.4966 сани
-4.4966 пушкин
-4.4966 царю
-4.4966 валя
-4.4966 лиза
-4.4966 скромно
-4.4966 ладони
-4.4966 видны
-4.4966 держит
-4.4966 очки
-4.4966 старым
-4.4966 желтый
-4.4966 худой
-4.4966 числа
-4.4966 заходил
-4.4966 бесконечно
-4.4966 стою
-4.4966 великой
-4.4966 счел
-4.4966 слушала
-4.4966 океана
-4.4966 послышался
-4.4966 тобою
-4.4966 гумилев
-4.4966 дэзи
-4.4966 барановский
-4.4966 бугай
-4.4966 киркин
-4.4966 тяжесть
-4.4966 пот
-4.4966 светлые
-4.4966 проходил
-4.4966 рост
-4.4966 уходя
-4.4966 поставили
-4.4966 скажешь
-4.4966 хватает
-4.4966 красоты
-4.4966 чьи
-4.4966 пример
-4.4966 скажете
-4.4966 вставил
-4.4966 помощник
-4.4966 буквально
-4.4966 рубля
-4.4966 якорь
-4.4966 взором
-4.4966 трактир
-4.4966 кузя
-4.4966 кучу
-4.4966 смело
-4.4966 веселые
-4.4966 острый
-4.4966 двенадцати
-4.4966 останавливаясь
-4.4966 подходя
-4.4966 причины
-4.4966 буквы
-4.4966 значение
-4.4966 небрежно
-4.4966 бледное
-4.4966 отношении
-4.4966 деревня
-4.4966 сосед
-4.4966 славу
-4.4966 рассказывает
-4.4966 скомандовал
-4.4966 коська
-4.4966 ознобишин
-4.4966 дюрок
-4.4966 судьбу
-4.4966 прислушиваясь
-4.4966 опустился
-4.4966 странные
-4.4966 втором
-4.4966 духом
-4.4966 теплой
-4.4966 тоскливо
-4.4966 звезд
-4.4966 имена
-4.4966 этак
-4.4966 толпой
-4.4966 лучи
-4.4966 опыт
-4.4966 здание
-4.4966 осень
-4.4966 лавки
-4.4966 вокзале
-4.4966 пушкина
-4.4966 цыган
-4.4966 дружины
-4.4966 молли
-4.4966 рег
-4.4966 десяток
-4.4966 тысяча
-4.4966 восьми
-4.4966 широким
-4.4966 небольшая
-4.4966 человеческой
-4.4966 женщине
-4.4966 встретить
-4.4966 попало
-4.4966 принесли
-4.4966 обиделся
-4.4966 гулять
-4.4966 человеческих
-4.4966 протянула
-4.4966 даль
-4.4966 испытывал
-4.4966 здоров
-4.4966 реку
-4.4966 писем
-4.4966 газета
-4.4966 тюрьме
-4.4966 молчала
-4.4966 иные
-4.4966 доброго
-4.4966 васильевич
-4.4966 серасвати
-4.4966 усталости
-4.4966 слабый
-4.4966 солнечный
-4.4966 считаю
-4.4966 приходили
-4.4966 показывал
-4.4966 машинально
-4.4966 пошло
-4.4966 линию
-4.4966 получал
-4.4966 тяжелых
-4.4966 горя
-4.4966 жалости
-4.4966 платить
-4.4966 камней
-4.4966 следом
-4.4966 тянет
-4.4966 хороша
-4.4966 летит
-4.4966 крикнула
-4.4966 поеду
-4.4966 молодость
-4.4966 убитых
-4.4966 пенсне
-4.4966 секретарь
-4.4966 взор
-4.4966 ленинград
-4.4966 вали
-4.4966 ки
-4.4966 дяденька
-4.4966 показались
-4.4966 возьмет
-4.4966 огромным
-4.4966 проходя
-4.4966 судорожно
-4.4966 предложение
-4.4966 естественно
-4.4966 открыла
-4.4966 возвращался
-4.4966 бьет
-4.4966 заплакал
-4.4966 ищет
-4.4966 зиму
-4.4966 садись
-4.4966 ответили
-4.4966 стула
-4.4966 спрашивала
-4.4966 гляжу
-4.4966 училище
-4.4966 меч
-4.4966 ценского
-4.4966 комендант
-4.4966 журнале
-4.4966 крепкий
-4.4966 дно
-4.4966 сапогах
-4.4966 услышав
-4.4966 небом
-4.4966 пуля
-4.4966 произведения
-4.4966 черти
-4.4966 подобные
-4.4966 долой
-4.4966 птиц
-4.4966 наклонился
-4.4966 вспомнила
-4.4966 командовал
-4.4966 своею
-4.4966 мастерской
-4.4966 сказка
-4.4966 ивановича
-4.4966 митя
-4.4966 тоня
-4.4966 франческо
-4.4966 корчагина
-4.4966 шагами
-4.4966 положив
-4.4966 начнет
-4.4966 общее
-4.4966 детской
-4.4966 прошлого
-4.4966 подтвердил
-4.4966 обществе
-4.4966 границы
-4.4966 увидите
-4.4966 смущенно
-4.4966 крайне
-4.4966 половиной
-4.4966 приятель
-4.4966 взрыв
-4.4966 вряд
-4.4966 председатель
-4.4966 пушки
-4.4966 начальства
-4.4966 ленина
-4.4966 блок
-4.4966 осмотрел
-4.4966 куски
-4.4966 глубину
-4.4966 лесной
-4.4966 карманы
-4.4966 становился
-4.4966 ладонь
-4.4966 весной
-4.4966 показывая
-4.4966 страшной
-4.4966 труп
-4.4966 ожидать
-4.4966 обязан
-4.4966 веки
-4.4966 старше
-4.4966 машину
-4.4966 шар
-4.4966 мягкие
-4.4966 приедет
-4.4966 борьба
-4.4966 квартира
-4.4966 спальню
-4.4966 сказки
-4.4966 сторож
-4.4966 рождения
-4.4966 ранен
-4.4966 погоди
-4.4966 слухи
-4.4966 ра
-4.4966 поскольку
-4.4966 потери
-4.4966 атаку
-4.4966 величество
-4.4966 каюты
-4.4966 николаю
-4.4966 срубов
-4.4966 воскресенье
-4.4966 вопросов
-4.4966 несчастье
-4.4966 противно
-4.4966 всякая
-4.4966 страшным
-4.4966 расскажу
-4.4966 мебель
-4.4966 наступила
-4.4966 пятнами
-4.4966 вздохнула
-4.4966 добрые
-4.4966 старую
-4.4966 гостя
-4.4966 сыном
-4.4966 обеими
-4.4966 сцене
-4.4966 сцену
-4.4966 бойся
-4.4966 дитя
-4.4966 стихов
-4.4966 з
-4.4966 дворце
-4.4966 мамы
-4.4966 яков
-4.4966 карташева
-4.4966 эдвард
-4.4966 серых
-4.4966 чистой
-4.4966 шепот
-4.4966 спокойный
-4.4966 курил
-4.4966 кулак
-4.4966 выходить
-4.4966 формы
-4.4966 грубо
-4.4966 лежат
-4.4966 принимал
-4.4966 карандашом
-4.4966 горько
-4.4966 оставьте
-4.4966 пишут
-4.4966 мужчин
-4.4966 железные
-4.4966 бывшего
-4.4966 нужным
-4.4966 покой
-4.4966 ужин
-4.4966 тюрьму
-4.4966 вернувшись
-4.4966 засмеялась
-4.4966 союза
-4.4966 великая
-4.4966 веру
-4.4966 парохода
-4.4966 имение
-4.4966 ленинграде
-4.4966 такою
-4.4966 тылу
-4.4966 чи
-4.4966 дуня
-4.4966 леша
-4.4966 мест
-4.4966 следы
-4.4966 маленьком
-4.4966 семи
-4.4966 забыв
-4.4966 мыслью
-4.4966 огромную
-4.4966 привели
-4.4966 тревога
-4.4966 кресла
-4.4966 передней
-4.4966 длинным
-4.4966 слышите
-4.4966 встретили
-4.4966 пожалуйте
-4.4966 нерешительно
-4.4966 жалованье
-4.4966 счастливый
-4.4966 тайны
-4.4966 магазин
-4.4966 маме
-4.4966 фон
-4.4966 мостик
-4.4966 мачты
-4.4966 евгений
-4.4966 августа
-4.4966 изд
-4.4966 тяжелое
-4.4966 продолжая
-4.4966 шутки
-4.4966 сильным
-4.4966 дымом
-4.4966 собрания
-4.4966 поверил
-4.4966 длинную
-4.4966 живая
-4.4966 точку
-4.4966 огромного
-4.4966 раздались
-4.4966 побледнел
-4.4966 крышу
-4.4966 глубже
-4.4966 лицах
-4.4966 почтительно
-4.4966 умрет
-4.4966 недовольно
-4.4966 взволнованно
-4.4966 враги
-4.4966 знаменитый
-4.4966 усмешкой
-4.4966 положим
-4.4966 отряда
-4.4966 угля
-4.4966 мудрость
-4.4966 адмиралу
-4.4966 дышал
-4.4966 быстротой
-4.4966 ладонью
-4.4966 издалека
-4.4966 вопросительно
-4.4966 часами
-4.4966 крупные
-4.4966 берегов
-4.4966 чести
-4.4966 умирать
-4.4966 походкой
-4.4966 чересчур
-4.4966 меры
-4.4966 надпись
-4.4966 лавке
-4.4966 участок
-4.4966 род
-4.4966 воевать
-4.4966 компанию
-4.4966 волков
-4.4966 ся
-4.4966 греве
-4.4966 тонким
-4.4966 синей
-4.4966 тоской
-4.4966 показывает
-4.4966 вскричал
-4.4966 вспыхнул
-4.4966 дождем
-4.4966 проходили
-4.4966 чистый
-4.4966 наполовину
-4.4966 пропал
-4.4966 вашем
-4.4966 старое
-4.4966 устроить
-4.4966 чья
-4.4966 постоял
-4.4966 красивая
-4.4966 злобно
-4.4966 вскрикнул
-4.4966 бери
-4.4966 удары
-4.4966 спрашивать
-4.4966 темноту
-4.4966 толку
-4.4966 играла
-4.4966 старости
-4.4966 здания
-4.4966 убивать
-4.4966 муки
-4.4966 подъезда
-4.4966 кошка
-4.4966 ходом
-4.4966 еврей
-4.4966 учительница
-4.4966 дарья
-4.5314 живым
-4.5314 узкой
-4.5314 настоящая
-4.5314 съел
-4.5314 приняли
-4.5314 щеку
-4.5314 уйдет
-4.5314 мостовой
-4.5314 кожи
-4.5314 тонкими
-4.5314 палку
-4.5314 действие
-4.5314 песня
-4.5314 оживленно
-4.5314 фуражки
-4.5314 крепость
-4.5314 добро
-4.5314 луны
-4.5314 зла
-4.5314 судья
-4.5314 австро
-4.5314 полную
-4.5314 шумом
-4.5314 видят
-4.5314 ненависть
-4.5314 толкнул
-4.5314 спорить
-4.5314 тонких
-4.5314 лампы
-4.5314 покажу
-4.5314 извольте
-4.5314 счастлив
-4.5314 пусто
-4.5314 поедем
-4.5314 подлец
-4.5314 желает
-4.5314 сцены
-4.5314 девушке
-4.5314 собирались
-4.5314 бледно
-4.5314 ввиду
-4.5314 рюмку
-4.5314 профессора
-4.5314 принцесса
-4.5314 кото
-4.5314 запахом
-4.5314 лесом
-4.5314 печально
-4.5314 половины
-4.5314 сижу
-4.5314 живем
-4.5314 решился
-4.5314 подать
-4.5314 милость
-4.5314 бояться
-4.5314 ест
-4.5314 толстого
-4.5314 восток
-4.5314 врача
-4.5314 приказание
-4.5314 отделение
-4.5314 конь
-4.5314 гражданин
-4.5314 монастырь
-4.5314 картине
-4.5314 полков
-4.5314 егор
-4.5314 февраля
-4.5314 молчать
-4.5314 вызвать
-4.5314 особенного
-4.5314 помощью
-4.5314 падал
-4.5314 будущего
-4.5314 легла
-4.5314 остатки
-4.5314 покоя
-4.5314 минута
-4.5314 принесла
-4.5314 дрожа
-4.5314 целиком
-4.5314 детьми
-4.5314 пускай
-4.5314 рубахе
-4.5314 окнах
-4.5314 мозгу
-4.5314 полдень
-4.5314 кольцо
-4.5314 фонарь
-4.5314 рассказывали
-4.5314 гнева
-4.5314 природа
-4.5314 ва
-4.5314 костра
-4.5314 правды
-4.5314 святого
-4.5314 прибавила
-4.5314 шлюпку
-4.5314 бережно
-4.5314 круглый
-4.5314 виден
-4.5314 уверенность
-4.5314 судьбе
-4.5314 поступить
-4.5314 суток
-4.5314 густые
-4.5314 усердно
-4.5314 левый
-4.5314 едем
-4.5314 передо
-4.5314 падает
-4.5314 бей
-4.5314 озера
-4.5314 север
-4.5314 вздор
-4.5314 негодяй
-4.5314 пассажиров
-4.5314 заводе
-4.5314 ет
-4.5314 короля
-4.5314 директор
-4.5314 организации
-4.5314 алексеевич
-4.5314 поймал
-4.5314 легкой
-4.5314 темную
-4.5314 живого
-4.5314 отчаянно
-4.5314 шутку
-4.5314 встрече
-4.5314 общего
-4.5314 детские
-4.5314 темноты
-4.5314 музыку
-4.5314 снисходительно
-4.5314 видим
-4.5314 ночевать
-4.5314 телу
-4.5314 замер
-4.5314 разговоров
-4.5314 долгие
-4.5314 относительно
-4.5314 пороге
-4.5314 больнице
-4.5314 воле
-4.5314 острове
-4.5314 старушка
-4.5314 жители
-4.5314 веры
-4.5314 океан
-4.5314 деда
-4.5314 барон
-4.5314 атаки
-4.5314 анны
-4.5314 карл
-4.5314 ной
-4.5314 царевича
-4.5314 сильное
-4.5314 людях
-4.5314 сосредоточенно
-4.5314 деловито
-4.5314 важное
-4.5314 легких
-4.5314 количество
-4.5314 держась
-4.5314 рассказа
-4.5314 длинная
-4.5314 общей
-4.5314 привезли
-4.5314 летели
-4.5314 связь
-4.5314 выстрела
-4.5314 хорош
-4.5314 всякую
-4.5314 басом
-4.5314 попробовал
-4.5314 постой
-4.5314 обязанности
-4.5314 мечты
-4.5314 брюки
-4.5314 восторгом
-4.5314 мировой
-4.5314 скалы
-4.5314 яйца
-4.5314 мальчики
-4.5314 судна
-4.5314 мостике
-4.5314 таинственно
-4.5314 потолок
-4.5314 рту
-4.5314 горячей
-4.5314 высоким
-4.5314 встречал
-4.5314 подушку
-4.5314 откровенно
-4.5314 понемногу
-4.5314 спокойным
-4.5314 ртом
-4.5314 четверо
-4.5314 поближе
-4.5314 считает
-4.5314 опасность
-4.5314 спереди
-4.5314 любопытство
-4.5314 присутствии
-4.5314 продолжать
-4.5314 привычно
-4.5314 курить
-4.5314 здоровья
-4.5314 закричала
-4.5314 школа
-4.5314 идя
-4.5314 спят
-4.5314 пишу
-4.5314 лестницу
-4.5314 сахар
-4.5314 молодежи
-4.5314 дяди
-4.5314 суть
-4.5314 бомбы
-4.5314 создал
-4.5314 воскликнула
-4.5314 шторм
-4.5314 пленных
-4.5314 боком
-4.5314 серая
-4.5314 спрятал
-4.5314 единственное
-4.5314 дико
-4.5314 дыша
-4.5314 подняться
-4.5314 хмуро
-4.5314 провести
-4.5314 уходили
-4.5314 мужем
-4.5314 похожи
-4.5314 глазки
-4.5314 вызвал
-4.5314 тихие
-4.5314 городом
-4.5314 требовал
-4.5314 пополам
-4.5314 имеют
-4.5314 разглядеть
-4.5314 красота
-4.5314 хватало
-4.5314 побежали
-4.5314 болит
-4.5314 клянусь
-4.5314 крым
-4.5314 твоему
-4.5314 нечаянно
-4.5314 стар
-4.5314 царство
-4.5314 бу
-4.5314 артиллерии
-4.5314 николаевича
-4.5314 ный
-4.5314 ганувер
-4.5314 савинкова
-4.5314 литература
-4.5314 момента
-4.5314 страницы
-4.5314 бросила
-4.5314 любопытства
-4.5314 побольше
-4.5314 расстоянии
-4.5314 встали
-4.5314 направлению
-4.5314 жест
-4.5314 открыто
-4.5314 кустах
-4.5314 существу
-4.5314 книжки
-4.5314 верхней
-4.5314 кормить
-4.5314 масла
-4.5314 причине
-4.5314 музыки
-4.5314 отдых
-4.5314 морду
-4.5314 кабинета
-4.5314 шептал
-4.5314 номере
-4.5314 пущай
-4.5314 федорович
-4.5314 павлик
-4.5314 каляев
-4.5314 гнор
-4.5314 застал
-4.5314 разошлись
-4.5314 неизменно
-4.5314 холодная
-4.5314 протягивая
-4.5314 топот
-4.5314 подойти
-4.5314 фразы
-4.5314 губам
-4.5314 третьем
-4.5314 держаться
-4.5314 лучших
-4.5314 злой
-4.5314 спокоен
-4.5314 карандаш
-4.5314 ездить
-4.5314 зовет
-4.5314 ставить
-4.5314 увы
-4.5314 копейки
-4.5314 комнат
-4.5314 ветру
-4.5314 зверя
-4.5314 области
-4.5314 письме
-4.5314 домик
-4.5314 просила
-4.5314 пост
-4.5314 братьев
-4.5314 плен
-4.5314 немецких
-4.5314 залу
-4.5314 революцию
-4.5314 правительство
-4.5314 папы
-4.5314 предмет
-4.5314 огромных
-4.5314 горячий
-4.5314 шага
-4.5314 опасно
-4.5314 серыми
-4.5314 встреча
-4.5314 становились
-4.5314 нравилось
-4.5314 мешает
-4.5314 стоявший
-4.5314 пары
-4.5314 читала
-4.5314 рубахи
-4.5314 особого
-4.5314 надписью
-4.5314 драться
-4.5314 свободу
-4.5314 славный
-4.5314 войдя
-4.5314 оставь
-4.5314 задача
-4.5314 великое
-4.5314 свободы
-4.5314 добрая
-4.5314 урок
-4.5314 русское
-4.5314 соль
-4.5314 божий
-4.5314 гавани
-4.5314 сигнал
-4.5314 большевики
-4.5314 катя
-4.5314 шкид
-4.5314 колька
-4.5314 гелли
-4.5314 белочка
-4.5314 визирь
-4.5314 пятый
-4.5314 библиотека
-4.5314 пытаясь
-4.5314 зеленых
-4.5314 второе
-4.5314 спокойной
-4.5314 делаю
-4.5314 чувствовать
-4.5314 мелких
-4.5314 болезненно
-4.5314 смысла
-4.5314 заплакала
-4.5314 пятно
-4.5314 спины
-4.5314 подряд
-4.5314 вырос
-4.5314 отвел
-4.5314 зайти
-4.5314 считали
-4.5314 хозяйство
-4.5314 кончилось
-4.5314 слушает
-4.5314 мешки
-4.5314 половине
-4.5314 побежала
-4.5314 сумел
-4.5314 ложь
-4.5314 работала
-4.5314 команде
-4.5314 получилось
-4.5314 дров
-4.5314 полагаю
-4.5314 немецкий
-4.5314 крыму
-4.5314 командиров
-4.5314 министра
-4.5314 окопах
-4.5314 еля
-4.5314 садко
-4.5314 выпустил
-4.5314 короткий
-4.5314 настоящего
-4.5314 желтой
-4.5314 двигались
-4.5314 штук
-4.5314 уйду
-4.5314 жалость
-4.5314 целых
-4.5314 силе
-4.5314 остро
-4.5314 врешь
-4.5314 спор
-4.5314 железо
-4.5314 понравился
-4.5314 забыла
-4.5314 скуки
-4.5314 позвал
-4.5314 продать
-4.5314 коней
-4.5314 молчи
-4.5314 поглядывая
-4.5314 мосту
-4.5314 произнесла
-4.5314 французы
-4.5314 сергеева
-4.5314 госпожа
-4.5314 глубины
-4.5314 полного
-4.5314 представление
-4.5314 сурово
-4.5314 тишины
-4.5314 перевел
-4.5314 одет
-4.5314 усталость
-4.5314 выражения
-4.5314 папиросы
-4.5314 пустил
-4.5314 собственного
-4.5314 голода
-4.5314 бежала
-4.5314 стуле
-4.5314 перо
-4.5314 следовательно
-4.5314 смеются
-4.5314 чая
-4.5314 звать
-4.5314 деревянные
-4.5314 оружия
-4.5314 оглядел
-4.5314 ешь
-4.5314 прочие
-4.5314 стреляли
-4.5314 гибели
-4.5314 партия
-4.5314 весть
-4.5314 телеграммы
-4.5314 начальнику
-4.5314 париж
-4.5314 маму
-4.5314 тарт
-4.5314 шевардин
-4.5314 холодным
-4.5314 придумал
-4.5314 лезет
-4.5314 пустые
-4.5314 темное
-4.5314 рассказов
-4.5314 видали
-4.5314 возвращаясь
-4.5314 поверить
-4.5314 годами
-4.5314 проворно
-4.5314 мнения
-4.5314 крыше
-4.5314 качестве
-4.5314 молодому
-4.5314 заговорила
-4.5314 синем
-4.5314 этаж
-4.5314 родину
-4.5314 вела
-4.5314 трубу
-4.5314 удивилась
-4.5314 учить
-4.5314 бедная
-4.5314 старухи
-4.5314 больницу
-4.5314 чемодан
-4.5314 прикажете
-4.5314 годах
-4.5314 карту
-4.5314 горничная
-4.5314 купе
-4.5314 степь
-4.5314 башни
-4.5314 юго
-4.5314 рыльский
-4.5314 раймонд
-4.5314 блэк
-4.5314 хрипло
-4.5314 поправил
-4.5314 яркий
-4.5314 слову
-4.5314 вежливо
-4.5314 слабость
-4.5314 висели
-4.5314 дорого
-4.5314 любопытно
-4.5314 плеч
-4.5314 пола
-4.5314 правый
-4.5314 растерянно
-4.5314 скажут
-4.5314 человеческого
-4.5314 старательно
-4.5314 слепой
-4.5314 очках
-4.5314 способен
-4.5314 согласно
-4.5314 подходили
-4.5314 вниманием
-4.5314 ружья
-4.5314 бегом
-4.5314 дура
-4.5314 рассвете
-4.5314 прочно
-4.5314 масло
-4.5314 ребенком
-4.5314 спрашивали
-4.5314 силами
-4.5314 разрешите
-4.5314 пойдешь
-4.5314 мужу
-4.5314 член
-4.5314 стран
-4.5314 добавила
-4.5314 говорилось
-4.5314 партию
-4.5314 совета
-4.5314 бинокль
-4.5314 тыл
-4.5314 штабс
-4.5314 боцмана
-4.5314 семеновна
-4.5314 алексеевна
-4.5314 синими
-4.5314 усталый
-4.5314 ушей
-4.5314 тонкая
-4.5314 тянулись
-4.5314 ухом
-4.5314 поднявшись
-4.5314 столб
-4.5314 ноге
-4.5314 веселая
-4.5314 знакомым
-4.5314 крепче
-4.5314 брали
-4.5314 пропасть
-4.5314 подробности
-4.5314 стена
-4.5314 мельком
-4.5314 палкой
-4.5314 растет
-4.5314 стенам
-4.5314 переулок
-4.5314 публики
-4.5314 оркестр
-4.5314 поют
-4.5314 печь
-4.5314 весла
-4.5314 сестру
-4.5314 париже
-4.5314 государства
-4.5314 франц
-4.5314 аль
-4.5314 вильгельм
-4.5314 мичмана
-4.5314 шкидцы
-4.5314 аммон
-4.5314 богдыхан
-4.5314 чайкину
-4.5314 щеке
-4.5314 уселся
-4.5314 настойчиво
-4.5314 восторга
-4.5314 сжал
-4.5314 гг
-4.5314 страсти
-4.5314 подумайте
-4.5314 концы
-4.5314 желтым
-4.5314 зелени
-4.5314 боялись
-4.5314 заснуть
-4.5314 полон
-4.5314 золота
-4.5314 смутился
-4.5314 упрямо
-4.5314 называют
-4.5314 доброе
-4.5314 цветок
-4.5314 убийство
-4.5314 милости
-4.5314 англии
-4.5314 сей
-4.5314 отпуск
-4.5314 офицерам
-4.5314 командиры
-4.5314 царица
-4.5314 старшина
-4.5314 артиллерия
-4.5314 эскадры
-4.5314 мотылек
-4.5314 грэй
-4.5314 двигался
-4.5314 собрался
-4.5314 лежать
-4.5314 чужим
-4.5314 губу
-4.5314 веселой
-4.5314 выходя
-4.5314 зеленым
-4.5314 подобного
-4.5314 несли
-4.5314 подмигнул
-4.5314 особой
-4.5314 богатый
-4.5314 кожу
-4.5314 терпеть
-4.5314 звал
-4.5314 серьезный
-4.5314 налил
-4.5314 кулаки
-4.5314 героя
-4.5314 улыбнувшись
-4.5314 неудобно
-4.5314 надолго
-4.5314 мальчиком
-4.5314 масса
-4.5314 смеялась
-4.5314 стариков
-4.5314 встает
-4.5314 умирает
-4.5314 поскорее
-4.5314 сибири
-4.5314 приказано
-4.5314 дважды
-4.5314 станцию
-4.5314 гражданской
-4.5314 крестьян
-4.5314 аж
-4.5314 пристава
-4.5314 бригады
-4.5314 дора
-4.5314 фра
-4.5314 люпчрйю
-4.5314 падая
-4.5314 слове
-4.5314 толстая
-4.5314 беспомощно
-4.5314 заставить
-4.5314 грязные
-4.5314 знай
-4.5314 понравилось
-4.5314 локоть
-4.5314 висел
-4.5314 носить
-4.5314 берут
-4.5314 приду
-4.5314 темными
-4.5314 желтыми
-4.5314 золотая
-4.5314 бороться
-4.5314 ящики
-4.5314 средства
-4.5314 войной
-4.5314 пива
-4.5314 тайна
-4.5314 жениться
-4.5314 славы
-4.5314 товар
-4.5314 высоту
-4.5314 ногти
-4.5314 доложил
-4.5314 адъютант
-4.5314 французов
-4.5314 орлов
-4.5314 ассоль
-4.5314 плеве
-4.5314 чернов
-4.5314 седьмой
-4.5314 нес
-4.5314 темном
-4.5314 фоне
-4.5314 новыми
-4.5314 усилия
-4.5314 дернул
-4.5314 действительности
-4.5314 одежду
-4.5314 яркие
-4.5314 заняты
-4.5314 мягким
-4.5314 молчания
-4.5314 холодные
-4.5314 прочитал
-4.5314 лапы
-4.5314 длинных
-4.5314 направление
-4.5314 двигаться
-4.5314 спички
-4.5314 лучшие
-4.5314 получила
-4.5314 кончится
-4.5314 дул
-4.5314 рыбы
-4.5314 дрянь
-4.5314 лучшего
-4.5314 довольный
-4.5314 миру
-4.5314 гнев
-4.5314 миллионы
-4.5314 мальчику
-4.5314 великим
-4.5314 запад
-4.5314 избе
-4.5314 молитвы
-4.5314 капитаном
-4.5314 ль
-4.5314 отнюдь
-4.5314 бухты
-4.5314 иваныча
-4.5314 даутов
-4.5314 андрий
-4.5314 полетика
-4.5314 шестнадцать
-4.5314 восьмой
-4.5314 резкий
-4.5314 зубах
-4.5314 бросив
-4.5314 рассматривал
-4.5314 расстояние
-4.5314 жестоко
-4.5314 бровями
-4.5314 героев
-4.5314 уехать
-4.5314 простая
-4.5314 плечом
-4.5314 милые
-4.5314 знаком
-4.5314 некому
-4.5314 столик
-4.5314 гордостью
-4.5314 яростно
-4.5314 женщиной
-4.5314 повернулась
-4.5314 легкая
-4.5314 способ
-4.5314 малейшего
-4.5314 решила
-4.5314 решить
-4.5314 делаешь
-4.5314 суп
-4.5314 тел
-4.5314 повторила
-4.5314 обратилась
-4.5314 сестре
-4.5314 ребятишки
-4.5314 доложить
-4.5314 спи
-4.5314 нянька
-4.5314 му
-4.5314 мальчиков
-4.5314 иванова
-4.5314 семеныч
-4.5314 никколо
-4.5692 розовые
-4.5692 характера
-4.5692 темным
-4.5692 грязной
-4.5692 лучшее
-4.5692 мыслями
-4.5692 переспросил
-4.5692 плеча
-4.5692 этажа
-4.5692 лукаво
-4.5692 мастер
-4.5692 бросили
-4.5692 любой
-4.5692 бывших
-4.5692 ничуть
-4.5692 прекрасная
-4.5692 считается
-4.5692 ветки
-4.5692 природе
-4.5692 умру
-4.5692 дорогая
-4.5692 девчонка
-4.5692 любезно
-4.5692 французский
-4.5692 путешествие
-4.5692 рубль
-4.5692 кружок
-4.5692 ученый
-4.5692 стану
-4.5692 главного
-4.5692 прошептала
-4.5692 рассказывала
-4.5692 волн
-4.5692 лавку
-4.5692 али
-4.5692 приятели
-4.5692 водою
-4.5692 военно
-4.5692 одессе
-4.5692 мамой
-4.5692 матросам
-4.5692 маше
-4.5692 корвета
-4.5692 ноября
-4.5692 держали
-4.5692 волнуясь
-4.5692 грязный
-4.5692 сухие
-4.5692 редкие
-4.5692 шутка
-4.5692 утрам
-4.5692 выстрелил
-4.5692 следить
-4.5692 лежа
-4.5692 попала
-4.5692 привыкли
-4.5692 женился
-4.5692 помог
-4.5692 положила
-4.5692 взволнованный
-4.5692 серьезным
-4.5692 лихо
-4.5692 казаться
-4.5692 поспешил
-4.5692 острые
-4.5692 помнить
-4.5692 строить
-4.5692 красавица
-4.5692 хохот
-4.5692 полна
-4.5692 новость
-4.5692 приказания
-4.5692 пение
-4.5692 бородатый
-4.5692 записки
-4.5692 наука
-4.5692 марш
-4.5692 автомобиль
-4.5692 частей
-4.5692 рисунок
-4.5692 граждане
-4.5692 дежурный
-4.5692 большевиков
-4.5692 лакей
-4.5692 империи
-4.5692 монах
-4.5692 величества
-4.5692 мушка
-4.5692 тарас
-4.5692 блюм
-4.5692 хватило
-4.5692 проще
-4.5692 самыми
-4.5692 успокоился
-4.5692 бегу
-4.5692 несет
-4.5692 принимать
-4.5692 маслом
-4.5692 золотыми
-4.5692 небольшие
-4.5692 удастся
-4.5692 существа
-4.5692 начались
-4.5692 зажег
-4.5692 голый
-4.5692 сообщить
-4.5692 судя
-4.5692 играя
-4.5692 полгода
-4.5692 пойдут
-4.5692 домом
-4.5692 прекрасной
-4.5692 детям
-4.5692 необычайно
-4.5692 старику
-4.5692 красном
-4.5692 стадо
-4.5692 колена
-4.5692 душно
-4.5692 уехали
-4.5692 трупы
-4.5692 науки
-4.5692 отозвалась
-4.5692 барыня
-4.5692 италии
-4.5692 пантелеева
-4.5692 юрия
-4.5692 странной
-4.5692 треск
-4.5692 честно
-4.5692 личность
-4.5692 устроил
-4.5692 приходят
-4.5692 собирается
-4.5692 годится
-4.5692 первому
-4.5692 фразу
-4.5692 тарелку
-4.5692 здоровый
-4.5692 листок
-4.5692 каменный
-4.5692 произошла
-4.5692 решено
-4.5692 переглянулись
-4.5692 нахмурился
-4.5692 ростом
-4.5692 перейти
-4.5692 играют
-4.5692 начинают
-4.5692 вырвался
-4.5692 тайну
-4.5692 свист
-4.5692 юности
-4.5692 посреди
-4.5692 экипаж
-4.5692 занять
-4.5692 русском
-4.5692 подвиг
-4.5692 улыбалась
-4.5692 юноши
-4.5692 озеро
-4.5692 одежды
-4.5692 чин
-4.5692 пожимая
-4.5692 какою
-4.5692 клуб
-4.5692 господ
-4.5692 кафе
-4.5692 великих
-4.5692 ангел
-4.5692 са
-4.5692 полком
-4.5692 террора
-4.5692 макухин
-4.5692 долба
-4.5692 врн
-4.5692 пятьсот
-4.5692 сентября
-4.5692 закурил
-4.5692 голубыми
-4.5692 потянул
-4.5692 держался
-4.5692 действует
-4.5692 синим
-4.5692 рукава
-4.5692 кустов
-4.5692 сырой
-4.5692 воображение
-4.5692 беспокойно
-4.5692 наступило
-4.5692 постучал
-4.5692 убедился
-4.5692 тяжелыми
-4.5692 тихая
-4.5692 встретила
-4.5692 торчали
-4.5692 послали
-4.5692 ноздри
-4.5692 железных
-4.5692 всякому
-4.5692 придут
-4.5692 бледные
-4.5692 падают
-4.5692 ящика
-4.5692 уехала
-4.5692 книгами
-4.5692 домах
-4.5692 писала
-4.5692 редакции
-4.5692 умолк
-4.5692 снаряд
-4.5692 пес
-4.5692 ученик
-4.5692 пристань
-4.5692 начальником
-4.5692 статья
-4.5692 борту
-4.5692 негр
-4.5692 яко
-4.5692 мистер
-4.5692 никандр
-4.5692 юлиана
-4.5692 левушка
-4.5692 лежало
-4.5692 дикий
-4.5692 отчаяния
-4.5692 горел
-4.5692 подозрительно
-4.5692 листьев
-4.5692 поехали
-4.5692 тьма
-4.5692 давая
-4.5692 светлой
-4.5692 поднимая
-4.5692 поймать
-4.5692 легли
-4.5692 познакомиться
-4.5692 порядка
-4.5692 потянулся
-4.5692 настроении
-4.5692 женский
-4.5692 соседа
-4.5692 названия
-4.5692 яму
-4.5692 последнем
-4.5692 плакали
-4.5692 возвращается
-4.5692 городов
-4.5692 фунтов
-4.5692 страну
-4.5692 зари
-4.5692 земной
-4.5692 морских
-4.5692 скрыть
-4.5692 приятеля
-4.5692 вскрикнула
-4.5692 послышались
-4.5692 избы
-4.5692 звери
-4.5692 горах
-4.5692 заря
-4.5692 ло
-4.5692 фельдфебель
-4.5692 варя
-4.5692 австрийцы
-4.5692 джентльмены
-4.5692 татаров
-4.5692 января
-4.5692 форму
-4.5692 бессознательно
-4.5692 кончилась
-4.5692 наружу
-4.5692 строки
-4.5692 мучительно
-4.5692 теплом
-4.5692 языки
-4.5692 возраста
-4.5692 глубокий
-4.5692 бумаге
-4.5692 вначале
-4.5692 плотный
-4.5692 уныло
-4.5692 человеческий
-4.5692 далекий
-4.5692 разрешения
-4.5692 выступил
-4.5692 этаже
-4.5692 камнем
-4.5692 зеленая
-4.5692 комнатах
-4.5692 приехать
-4.5692 бегал
-4.5692 пробежал
-4.5692 миром
-4.5692 вдова
-4.5692 сумерках
-4.5692 дверям
-4.5692 тайной
-4.5692 пригласил
-4.5692 готова
-4.5692 делалось
-4.5692 колокола
-4.5692 ужина
-4.5692 вспоминает
-4.5692 переулке
-4.5692 трапу
-4.5692 пулемет
-4.5692 ученики
-4.5692 шо
-4.5692 австрийцев
-4.5692 вчк
-4.5692 хлопнул
-4.5692 попался
-4.5692 продолжали
-4.5692 широкая
-4.5692 некоторым
-4.5692 рассмотреть
-4.5692 полез
-4.5692 запас
-4.5692 бешено
-4.5692 шляпы
-4.5692 бледным
-4.5692 розовый
-4.5692 юг
-4.5692 бесшумно
-4.5692 разобрать
-4.5692 духу
-4.5692 похожа
-4.5692 чтение
-4.5692 прочее
-4.5692 твоим
-4.5692 поможет
-4.5692 фуражке
-4.5692 борьбу
-4.5692 верит
-4.5692 грусть
-4.5692 магазина
-4.5692 баб
-4.5692 добрым
-4.5692 свидание
-4.5692 печки
-4.5692 родители
-4.5692 английский
-4.5692 жених
-4.5692 телеграмма
-4.5692 радио
-4.5692 отделения
-4.5692 убьют
-4.5692 сестер
-4.5692 пулеметы
-4.5692 чинов
-4.5692 храма
-4.5692 никита
-4.5692 австрийских
-4.5692 сыромолотова
-4.5692 ожидания
-4.5692 привычка
-4.5692 небольшого
-4.5692 остановиться
-4.5692 беззвучно
-4.5692 подушки
-4.5692 роде
-4.5692 стучали
-4.5692 выбежал
-4.5692 весел
-4.5692 заговорили
-4.5692 тьме
-4.5692 готовый
-4.5692 происходило
-4.5692 лбом
-4.5692 сумасшедший
-4.5692 горела
-4.5692 незачем
-4.5692 рассвета
-4.5692 дорогие
-4.5692 счастливо
-4.5692 дышит
-4.5692 надеясь
-4.5692 крыльца
-4.5692 двору
-4.5692 родные
-4.5692 добра
-4.5692 раздраженно
-4.5692 городок
-4.5692 правы
-4.5692 поскорей
-4.5692 слуга
-4.5692 рай
-4.5692 колонны
-4.5692 орел
-4.5692 мадам
-4.5692 константин
-4.5692 редактор
-4.5692 ба
-4.5692 палубы
-4.5692 сергея
-4.5692 ные
-4.5692 семью
-4.5692 человеческие
-4.5692 посмотрев
-4.5692 углом
-4.5692 красивой
-4.5692 острым
-4.5692 красивые
-4.5692 туго
-4.5692 называть
-4.5692 щель
-4.5692 внутрь
-4.5692 неизвестный
-4.5692 синее
-4.5692 жду
-4.5692 ряда
-4.5692 несколькими
-4.5692 определить
-4.5692 мягкой
-4.5692 красную
-4.5692 раздумье
-4.5692 особенности
-4.5692 хозяев
-4.5692 оборвал
-4.5692 надеялся
-4.5692 быстрым
-4.5692 правде
-4.5692 причина
-4.5692 забор
-4.5692 рада
-4.5692 ездили
-4.5692 защиты
-4.5692 крестом
-4.5692 строй
-4.5692 пожара
-4.5692 чиновник
-4.5692 французского
-4.5692 молитву
-4.5692 рынок
-4.5692 взглядывая
-4.5692 погоны
-4.5692 петух
-4.5692 графа
-4.5692 точь
-4.5692 кино
-4.5692 царем
-4.5692 що
-4.5692 эскадра
-4.5692 женя
-4.5692 ганс
-4.5692 исчезли
-4.5692 горячим
-4.5692 бойко
-4.5692 серьезное
-4.5692 согнувшись
-4.5692 открытым
-4.5692 плюнул
-4.5692 найдет
-4.5692 собрании
-4.5692 даю
-4.5692 знакомое
-4.5692 скрылась
-4.5692 перестали
-4.5692 вытянул
-4.5692 рассердился
-4.5692 ночей
-4.5692 тонко
-4.5692 наступил
-4.5692 дрожит
-4.5692 взад
-4.5692 повернувшись
-4.5692 посредине
-4.5692 деревянный
-4.5692 круглыми
-4.5692 бегали
-4.5692 братом
-4.5692 принести
-4.5692 страшного
-4.5692 мрачный
-4.5692 делала
-4.5692 смирно
-4.5692 приветливо
-4.5692 случиться
-4.5692 хорошим
-4.5692 разглядел
-4.5692 разговоре
-4.5692 операции
-4.5692 колес
-4.5692 имеется
-4.5692 глядят
-4.5692 занятия
-4.5692 членов
-4.5692 шепчет
-4.5692 животных
-4.5692 кот
-4.5692 близ
-4.5692 суде
-4.5692 пиво
-4.5692 веков
-4.5692 назначен
-4.5692 собора
-4.5692 француз
-4.5692 бе
-4.5692 учеников
-4.5692 воробей
-4.5692 зощенко
-4.5692 богиня
-4.5692 куколка
-4.5692 шестой
-4.5692 мирно
-4.5692 устали
-4.5692 улыбнуться
-4.5692 мокрый
-4.5692 положить
-4.5692 ясным
-4.5692 печатается
-4.5692 очнулся
-4.5692 свежей
-4.5692 небольшую
-4.5692 реже
-4.5692 гордость
-4.5692 занятие
-4.5692 могилу
-4.5692 вкус
-4.5692 зависит
-4.5692 начинали
-4.5692 мерзавец
-4.5692 границей
-4.5692 железный
-4.5692 глубоким
-4.5692 минутку
-4.5692 скверно
-4.5692 спас
-4.5692 красок
-4.5692 тихой
-4.5692 желал
-4.5692 огне
-4.5692 товарищами
-4.5692 врачи
-4.5692 машине
-4.5692 молиться
-4.5692 губах
-4.5692 детски
-4.5692 хода
-4.5692 энергично
-4.5692 памятник
-4.5692 базар
-4.5692 рассмеялась
-4.5692 буркнул
-4.5692 патронов
-4.5692 вагонов
-4.5692 роз
-4.5692 солдатам
-4.5692 дневник
-4.5692 ерунда
-4.5692 монахи
-4.5692 мастерскую
-4.5692 генералов
-4.5692 ян
-4.5692 григорьевна
-4.5692 восемнадцать
-4.5692 крупный
-4.5692 мелькнула
-4.5692 злобы
-4.5692 крупными
-4.5692 уха
-4.5692 понравилась
-4.5692 одинокий
-4.5692 изнутри
-4.5692 крича
-4.5692 толстую
-4.5692 прощаясь
-4.5692 очертания
-4.5692 долю
-4.5692 уважением
-4.5692 поверх
-4.5692 необходимости
-4.5692 десятка
-4.5692 вплоть
-4.5692 строя
-4.5692 свету
-4.5692 жаркий
-4.5692 труб
-4.5692 убежал
-4.5692 хороши
-4.5692 заболел
-4.5692 принято
-4.5692 мухи
-4.5692 прислал
-4.5692 понятия
-4.5692 жителей
-4.5692 обстоятельства
-4.5692 пуль
-4.5692 безразлично
-4.5692 испугалась
-4.5692 преступление
-4.5692 стенами
-4.5692 разными
-4.5692 глупый
-4.5692 сена
-4.5692 получается
-4.5692 убийства
-4.5692 неправда
-4.5692 академии
-4.5692 аппарат
-4.5692 порта
-4.5692 петрограде
-4.5692 дана
-4.5692 наступления
-4.5692 гардемарин
-4.5692 друд
-4.5692 алпатов
-4.5692 зубов
-4.5692 сильного
-4.5692 треском
-4.5692 похожие
-4.5692 труднее
-4.5692 объяснял
-4.5692 относится
-4.5692 обеду
-4.5692 особый
-4.5692 усилий
-4.5692 дожидаясь
-4.5692 широкими
-4.5692 уху
-4.5692 новости
-4.5692 обстановке
-4.5692 изумленно
-4.5692 широкую
-4.5692 прочесть
-4.5692 делаете
-4.5692 отдельные
-4.5692 оставались
-4.5692 открылась
-4.5692 рабочего
-4.5692 пьют
-4.5692 прогулки
-4.5692 наслаждением
-4.5692 нежные
-4.5692 буквами
-4.5692 появляется
-4.5692 садится
-4.5692 успокоить
-4.5692 малого
-4.5692 спокойствие
-4.5692 восторженно
-4.5692 четко
-4.5692 гостиницу
-4.5692 мертвые
-4.5692 кони
-4.5692 даче
-4.5692 победа
-4.5692 немецкие
-4.5692 моряка
-4.5692 командой
-4.5692 сообщения
-4.5692 приказа
-4.5692 каши
-4.5692 взвод
-4.5692 жандарм
-4.5692 шлюпка
-4.5692 тверской
-4.5692 ротой
-4.5692 молвил
-4.5692 брусилова
-4.5692 тамарочка
-4.5692 генкель
-4.5692 вытер
-4.5692 улыбаться
-4.5692 воздухом
-4.5692 длинное
-4.5692 пальца
-4.5692 идешь
-4.5692 ладоши
-4.5692 сверкали
-4.5692 дна
-4.5692 хитро
-4.5692 ярче
-4.5692 синих
-4.5692 приходила
-4.5692 подбежал
-4.5692 дрожал
-4.5692 сняли
-4.5692 горят
-4.5692 названием
-4.5692 принадлежит
-4.5692 чужого
-4.5692 рады
-4.5692 замечание
-4.5692 стрелял
-4.5692 устало
-4.5692 схватился
-4.5692 четвертого
-4.5692 имущество
-4.5692 пела
-4.5692 закричали
-4.5692 слышались
-4.5692 пароходе
-4.5692 деятельность
-4.5692 состав
-4.5692 молния
-4.5692 гостиную
-4.5692 батюшки
-4.5692 здравствует
-4.5692 мостика
-4.5692 кондуктор
-4.5692 лука
-4.5692 александрович
-4.5692 катере
-4.5692 адмиралом
-4.5692 баркас
-4.5692 глухим
-4.5692 служит
-4.5692 прежнее
-4.5692 обиды
-4.5692 расчет
-4.5692 позе
-4.5692 познакомился
-4.5692 простым
-4.5692 стучит
-4.5692 корни
-4.5692 добросовестно
-4.5692 настоящие
-4.5692 ошибся
-4.5692 видна
-4.5692 дорог
-4.5692 кулаками
-4.5692 ведут
-4.5692 выбрал
-4.5692 цену
-4.5692 показывать
-4.5692 встретились
-4.5692 повезло
-4.5692 замечает
-4.5692 вздумал
-4.5692 верный
-4.5692 осени
-4.5692 целыми
-4.5692 всячески
-4.5692 бьется
-4.5692 таков
-4.5692 ведро
-4.5692 медные
-4.5692 народом
-4.5692 сию
-4.5692 истинно
-4.5692 положительно
-4.5692 парня
-4.5692 сергеевич
-4.5692 больные
-4.5692 старшим
-4.5692 спальне
-4.5692 аромат
-4.5692 рояль
-4.5692 кучер
-4.5692 мертвых
-4.5692 га
-4.5692 одессу
-4.5692 республика
-4.5692 мудрости
-4.5692 ных
-4.5692 афанасьевич
-4.5692 франциско
-4.5692 юра
-4.5692 санди
-4.5692 аксинья
-4.5692 бабаева
-4.5692 онпсвхй
-4.5692 выпрямился
-4.5692 хорошей
-4.5692 ловил
-4.5692 теплая
-4.5692 отдельно
-4.5692 шея
-4.5692 ранее
-4.5692 напоминал
-4.5692 материал
-4.5692 звуков
-4.5692 узкий
-4.5692 лета
-4.5692 болью
-4.5692 плавно
-4.5692 покое
-4.5692 душ
-4.5692 знакомство
-4.5692 сообразил
-4.5692 найдется
-4.5692 едят
-4.5692 хозяева
-4.5692 краснея
-4.5692 получает
-4.5692 дальний
-4.5692 наблюдая
-4.5692 бывшие
-4.5692 летят
-4.5692 потихоньку
-4.5692 рядами
-4.5692 должность
-4.5692 чувствовала
-4.5692 столы
-4.5692 возбужденно
-4.5692 младший
-4.5692 создать
-4.5692 чепуха
-4.5692 караул
-4.5692 невеста
-4.5692 поры
-4.5692 порт
-4.5692 карточку
-4.5692 свобода
-4.5692 мозга
-4.5692 ду
-4.5692 европы
-4.5692 закат
-4.5692 услыхал
-4.5692 поход
-4.5692 соболев
-4.5692 государя
-4.5692 волнам
-4.5692 подпоручик
-4.5692 прапорщика
-4.5692 гришка
-4.5692 василек
-4.5692 артем
-4.5692 семадар
-4.5692 вспоминать
-4.5692 шума
-4.5692 дурака
-4.5692 короткие
-4.5692 придумать
-4.5692 появилось
-4.5692 шапке
-4.5692 отвечая
-4.5692 недоверчиво
-4.5692 крепкие
-4.5692 упали
-4.5692 пью
-4.5692 мертвый
-4.5692 встретился
-4.5692 прежнего
-4.5692 зеленого
-4.5692 деревьями
-4.5692 отсутствие
-4.5692 костюме
-4.5692 тревоги
-4.5692 наблюдать
-4.5692 обернулась
-4.5692 дружно
-4.5692 держи
-4.5692 постойте
-4.5692 поднимаясь
-4.5692 железа
-4.5692 глазками
-4.5692 оружием
-4.5692 кожа
-4.5692 похожим
-4.5692 крыльцо
-4.5692 молодую
-4.5692 выстрелов
-4.5692 целовал
-4.5692 хозяину
-4.5692 сны
-4.5692 беседы
-4.5692 обращая
-4.5692 наедине
-4.5692 давеча
-4.5692 непосредственно
-4.5692 посередине
-4.5692 жалованья
-4.5692 статью
-4.5692 успеха
-4.5692 льва
-4.5692 любезный
-4.5692 выкрикнул
-4.5692 волки
-4.5692 правительства
-4.5692 горького
-4.5692 увидав
-4.5692 матросами
-4.5692 живописи
-4.5692 раненые
-4.5692 гудков
-4.5692 нахимова
-4.5692 меншиков
-4.5692 стеша
-4.5692 никодиму
-4.5692 ретизанов
-4.5692 восемьдесят
-4.5692 смертельно
-4.5692 запомнил
-4.5692 небольшим
-4.5692 поделаешь
-4.5692 свернул
-4.5692 щеках
-4.5692 зелеными
-4.5692 страстно
-4.5692 лечь
-4.5692 надеждой
-4.5692 сильные
-4.5692 объяснять
-4.5692 отчаянием
-4.5692 остановить
-4.5692 вспыхнула
-4.5692 пояса
-4.5692 теплое
-4.5692 хорошенько
-4.5692 вставая
-4.5692 зелень
-4.5692 относился
-4.5692 способности
-4.5692 ручки
-4.5692 дано
-4.5692 правом
-4.5692 морская
-4.5692 отчаянный
-4.5692 песке
-4.5692 берите
-4.5692 покупать
-4.5692 ямы
-4.5692 товарищу
-4.5692 ошибки
-4.5692 неопределенно
-4.5692 список
-4.5692 спросили
-4.5692 записал
-4.5692 родины
-4.5692 чувствовалось
-4.5692 мечта
-4.5692 ковер
-4.5692 выражению
-4.5692 отвечали
-4.5692 главной
-4.5692 коне
-4.5692 святых
-4.5692 заключил
-4.5692 губернатор
-4.5692 турок
-4.5692 обер
-4.5692 бабка
-4.5692 вахту
-4.5692 старец
-4.5692 штурм
-4.5692 худолей
-4.5692 зайцева
-4.5692 хазов
-4.5692 вошло
-4.5692 собрал
-4.5692 напряжения
-4.5692 движений
-4.5692 придя
-4.5692 принимает
-4.5692 ставил
-4.5692 услышать
-4.5692 горячее
-4.5692 лампу
-4.5692 кругу
-4.5692 печати
-4.5692 беспокойство
-4.5692 духе
-4.5692 захохотал
-4.5692 имеете
-4.5692 висит
-4.5692 широкое
-4.5692 наскоро
-4.5692 входил
-4.5692 велика
-4.5692 дошли
-4.5692 неподалеку
-4.5692 прислушался
-4.5692 талант
-4.5692 занял
-4.5692 рыжая
-4.5692 прожил
-4.5692 горячие
-4.5692 дочка
-4.5692 свободе
-4.5692 охоту
-4.5692 рекой
-4.5692 продал
-4.5692 медведь
-4.5692 черно
-4.5692 секрет
-4.5692 полях
-4.5692 положили
-4.5692 идея
-4.5692 облаков
-4.5692 читатель
-4.5692 тайно
-4.5692 расхохотался
-4.5692 поцелуй
-4.5692 ре
-4.5692 сомневался
-4.5692 натуры
-4.5692 волк
-4.5692 знамя
-4.5692 топор
-4.5692 украл
-4.5692 милосердия
-4.5692 пустыни
-4.5692 казаков
-4.5692 послушник
-4.5692 самсону
-4.5692 представляет
-4.5692 легкое
-4.5692 небольшое
-4.5692 старом
-4.5692 открывая
-4.5692 удобно
-4.5692 удержался
-4.5692 сильных
-4.5692 размахивая
-4.5692 книгой
-4.5692 человеческое
-4.5692 короткое
-4.5692 заставили
-4.5692 кинулись
-4.5692 доску
-4.5692 захочет
-4.5692 пота
-4.5692 узкие
-4.5692 оделся
-4.5692 цена
-4.5692 сидевший
-4.5692 требуется
-4.5692 площадке
-4.5692 стремился
-4.5692 повсюду
-4.5692 желаете
-4.5692 пудов
-4.5692 поднимается
-4.5692 фонари
-4.5692 боялась
-4.5692 получать
-4.5692 любите
-4.5692 красоту
-4.5692 правила
-4.5692 распоряжение
-4.5692 страдания
-4.5692 смел
-4.5692 машин
-4.5692 табаку
-4.5692 картуз
-4.5692 базаре
-4.5692 царской
-4.5692 матушка
-4.5692 тою
-4.5692 зимою
-4.5692 войсками
-4.5692 замка
-4.5692 участке
-4.5692 пассажиры
-4.5692 крестьяне
-4.5692 армией
-4.5692 винтовок
-4.5692 подполковник
-4.5692 антона
-4.5692 алексею
-4.5692 винчи
-4.5692 коняев
-4.6105 ловить
-4.6105 короче
-4.6105 вывел
-4.6105 чистое
-4.6105 ища
-4.6105 поперек
-4.6105 середину
-4.6105 ударов
-4.6105 оставляя
-4.6105 полосы
-4.6105 собрать
-4.6105 углы
-4.6105 строгий
-4.6105 несчастный
-4.6105 горизонте
-4.6105 просили
-4.6105 гладко
-4.6105 интересом
-4.6105 спина
-4.6105 зорко
-4.6105 третью
-4.6105 кисти
-4.6105 военным
-4.6105 моложе
-4.6105 огоньки
-4.6105 зашагал
-4.6105 зрелище
-4.6105 умом
-4.6105 темного
-4.6105 хожу
-4.6105 пожалел
-4.6105 линия
-4.6105 условиях
-4.6105 брезгливо
-4.6105 калитку
-4.6105 союз
-4.6105 строю
-4.6105 внутренне
-4.6105 ресторане
-4.6105 неужто
-4.6105 шкаф
-4.6105 гроба
-4.6105 дон
-4.6105 дачи
-4.6105 флага
-4.6105 батарей
-4.6105 наде
-4.6105 тинг
-4.6105 никодимов
-4.6105 лобачев
-4.6105 декабря
-4.6105 четыреста
-4.6105 дет
-4.6105 местам
-4.6105 отчаяние
-4.6105 настоящим
-4.6105 терять
-4.6105 нужды
-4.6105 развел
-4.6105 далекой
-4.6105 углах
-4.6105 пустить
-4.6105 щели
-4.6105 пятидесяти
-4.6105 жар
-4.6105 отворил
-4.6105 удивлению
-4.6105 тяжелую
-4.6105 бойтесь
-4.6105 объяснения
-4.6105 фонаря
-4.6105 событие
-4.6105 удивлялся
-4.6105 помогал
-4.6105 стулья
-4.6105 рыжие
-4.6105 состояния
-4.6105 шутить
-4.6105 вещах
-4.6105 конверт
-4.6105 волновался
-4.6105 дрожь
-4.6105 центре
-4.6105 почувствовала
-4.6105 иное
-4.6105 кашлянул
-4.6105 крупных
-4.6105 продолжает
-4.6105 беги
-4.6105 отправить
-4.6105 старались
-4.6105 силен
-4.6105 ужином
-4.6105 одежде
-4.6105 весны
-4.6105 помнит
-4.6105 стрельба
-4.6105 вдобавок
-4.6105 отовсюду
-4.6105 полночь
-4.6105 супруга
-4.6105 купца
-4.6105 иностранных
-4.6105 карте
-4.6105 казни
-4.6105 храм
-4.6105 николаевна
-4.6105 лик
-4.6105 катерина
-4.6105 семенов
-4.6105 мисс
-4.6105 леночку
-4.6105 энниок
-4.6105 рукам
-4.6105 гордости
-4.6105 терпеливо
-4.6105 гордо
-4.6105 впечатлений
-4.6105 понимали
-4.6105 мелькнуло
-4.6105 серого
-4.6105 погоду
-4.6105 искали
-4.6105 грязью
-4.6105 обернувшись
-4.6105 предметы
-4.6105 кончился
-4.6105 обыкновенный
-4.6105 спасения
-4.6105 тяжестью
-4.6105 порядочно
-4.6105 детский
-4.6105 палки
-4.6105 раны
-4.6105 мгновений
-4.6105 знания
-4.6105 пиджак
-4.6105 подарил
-4.6105 револьвера
-4.6105 едут
-4.6105 могилы
-4.6105 закону
-4.6105 став
-4.6105 лесов
-4.6105 энергии
-4.6105 темнота
-4.6105 кольца
-4.6105 коровы
-4.6105 солдатами
-4.6105 приезда
-4.6105 позор
-4.6105 благо
-4.6105 девица
-4.6105 девочек
-4.6105 трамвай
-4.6105 верите
-4.6105 рукопись
-4.6105 пароходы
-4.6105 войско
-4.6105 нижних
-4.6105 рас
-4.6105 евгения
-4.6105 безайса
-4.6105 ашанина
-4.6105 холодную
-4.6105 вытирая
-4.6105 нечем
-4.6105 уходила
-4.6105 лампа
-4.6105 отрываясь
-4.6105 тупо
-4.6105 настоящей
-4.6105 входя
-4.6105 завел
-4.6105 животное
-4.6105 уснул
-4.6105 мокрые
-4.6105 держала
-4.6105 железная
-4.6105 причин
-4.6105 дикие
-4.6105 рос
-4.6105 массу
-4.6105 жаловаться
-4.6105 седые
-4.6105 фраза
-4.6105 собственных
-4.6105 мелькали
-4.6105 бородкой
-4.6105 объяснение
-4.6105 тревогой
-4.6105 игре
-4.6105 ножки
-4.6105 родных
-4.6105 бороды
-4.6105 корней
-4.6105 чувствовали
-4.6105 зеркала
-4.6105 закрыв
-4.6105 вступил
-4.6105 делами
-4.6105 ослепительно
-4.6105 страшную
-4.6105 долгом
-4.6105 соседей
-4.6105 левом
-4.6105 вдаль
-4.6105 московский
-4.6105 знание
-4.6105 нежностью
-4.6105 поэзии
-4.6105 дачу
-4.6105 куды
-4.6105 канцелярии
-4.6105 приказу
-4.6105 клуба
-4.6105 сие
-4.6105 хаты
-4.6105 марк
-4.6105 кузьма
-4.6105 ным
-4.6105 нади
-4.6105 селенгинский
-4.6105 вашскородь
-4.6105 мазанка
-4.6105 девятьсот
-4.6105 присутствие
-4.6105 воспоминание
-4.6105 обычной
-4.6105 неторопливо
-4.6105 кротко
-4.6105 сеть
-4.6105 бодро
-4.6105 правая
-4.6105 тускло
-4.6105 носит
-4.6105 вздох
-4.6105 набок
-4.6105 упасть
-4.6105 пояснил
-4.6105 огромными
-4.6105 печать
-4.6105 простые
-4.6105 крышей
-4.6105 желтых
-4.6105 советский
-4.6105 поняв
-4.6105 занятий
-4.6105 отпустил
-4.6105 родителей
-4.6105 тоне
-4.6105 ставит
-4.6105 ожидали
-4.6105 поворот
-4.6105 бревна
-4.6105 явиться
-4.6105 золотым
-4.6105 выяснилось
-4.6105 припомнил
-4.6105 посту
-4.6105 смог
-4.6105 лесах
-4.6105 больницы
-4.6105 стихотворение
-4.6105 массы
-4.6105 говор
-4.6105 расскажи
-4.6105 адвокат
-4.6105 советская
-4.6105 флагом
-4.6105 бюро
-4.6105 це
-4.6105 компас
-4.6105 рейде
-4.6105 самолет
-4.6105 миша
-4.6105 иль
-4.6105 позиций
-4.6105 ляля
-4.6105 людвига
-4.6105 вязников
-4.6105 холодное
-4.6105 веселое
-4.6105 отношению
-4.6105 желанием
-4.6105 крика
-4.6105 значило
-4.6105 зевнул
-4.6105 важный
-4.6105 прекратить
-4.6105 пользуясь
-4.6105 четверти
-4.6105 простое
-4.6105 мешало
-4.6105 волей
-4.6105 узнаю
-4.6105 тянется
-4.6105 прибыл
-4.6105 цыпочках
-4.6105 представлялось
-4.6105 молока
-4.6105 чистая
-4.6105 бумага
-4.6105 примеру
-4.6105 особое
-4.6105 прохожих
-4.6105 особо
-4.6105 окликнул
-4.6105 временно
-4.6105 значения
-4.6105 ненависти
-4.6105 неслись
-4.6105 деревянных
-4.6105 открыли
-4.6105 коробку
-4.6105 воротам
-4.6105 местами
-4.6105 пьяные
-4.6105 бумажки
-4.6105 работают
-4.6105 явилась
-4.6105 чудак
-4.6105 мелочи
-4.6105 узел
-4.6105 четвертом
-4.6105 трижды
-4.6105 хор
-4.6105 дворник
-4.6105 рассказала
-4.6105 колодца
-4.6105 больных
-4.6105 древних
-4.6105 ресторан
-4.6105 госпиталь
-4.6105 петров
-4.6105 бани
-4.6105 казак
-4.6105 ротный
-4.6105 анне
-4.6105 хи
-4.6105 вахтенный
-4.6105 ст
-4.6105 леньки
-4.6105 партизан
-4.6105 оля
-4.6105 высочество
-4.6105 смит
-4.6105 ъ
-4.6105 михайла
-4.6105 случится
-4.6105 единственным
-4.6105 звучит
-4.6105 бесполезно
-4.6105 толстыми
-4.6105 оглянувшись
-4.6105 спешил
-4.6105 ненавистью
-4.6105 недоумением
-4.6105 изумлением
-4.6105 лучший
-4.6105 вдвое
-4.6105 резким
-4.6105 удержать
-4.6105 листьями
-4.6105 разглядывал
-4.6105 круглое
-4.6105 крепким
-4.6105 принимая
-4.6105 постройки
-4.6105 доброй
-4.6105 сжимая
-4.6105 виски
-4.6105 окончил
-4.6105 встречались
-4.6105 доказать
-4.6105 портреты
-4.6105 проводить
-4.6105 сохранить
-4.6105 население
-4.6105 поморщился
-4.6105 мастера
-4.6105 ругался
-4.6105 прекрасное
-4.6105 чудеса
-4.6105 подобный
-4.6105 отношениях
-4.6105 белья
-4.6105 старуху
-4.6105 каков
-4.6105 кусочек
-4.6105 одеваться
-4.6105 подожди
-4.6105 военном
-4.6105 перекрестился
-4.6105 французской
-4.6105 верстах
-4.6105 лестница
-4.6105 поминутно
-4.6105 лучами
-4.6105 корова
-4.6105 племянник
-4.6105 отцы
-4.6105 кашу
-4.6105 кресты
-4.6105 сарай
-4.6105 мужиков
-4.6105 противник
-4.6105 петроград
-4.6105 подвал
-4.6105 дьявола
-4.6105 теме
-4.6105 зауряд
-4.6105 флоренции
-4.6105 ганэль
-4.6105 пийчик
-4.6105 испуга
-4.6105 близких
-4.6105 заботливо
-4.6105 разбудил
-4.6105 воротник
-4.6105 повыше
-4.6105 удивления
-4.6105 торопился
-4.6105 волнением
-4.6105 облегченно
-4.6105 стволы
-4.6105 мило
-4.6105 разглядывая
-4.6105 пылью
-4.6105 досок
-4.6105 восторге
-4.6105 богатство
-4.6105 подали
-4.6105 близость
-4.6105 средство
-4.6105 яснее
-4.6105 нежный
-4.6105 схватила
-4.6105 сделай
-4.6105 везет
-4.6105 негде
-4.6105 прочих
-4.6105 нежной
-4.6105 свинья
-4.6105 направляясь
-4.6105 движется
-4.6105 звука
-4.6105 местности
-4.6105 десятков
-4.6105 схватив
-4.6105 каменные
-4.6105 мух
-4.6105 кушать
-4.6105 пулю
-4.6105 горизонт
-4.6105 средств
-4.6105 нежным
-4.6105 вопль
-4.6105 планы
-4.6105 проснулась
-4.6105 жертву
-4.6105 стенке
-4.6105 паспорт
-4.6105 тетрадь
-4.6105 северной
-4.6105 дан
-4.6105 ца
-4.6105 бухте
-4.6105 андреев
-4.6105 львович
-4.6105 матвеева
-4.6105 федотов
-4.6105 рш
-4.6105 бабаеву
-4.6105 новакович
-4.6105 четырнадцать
-4.6105 громкий
-4.6105 появление
-4.6105 высокую
-4.6105 висела
-4.6105 перешли
-4.6105 нестерпимо
-4.6105 захватил
-4.6105 решив
-4.6105 молоком
-4.6105 начинала
-4.6105 стучал
-4.6105 знакомого
-4.6105 нести
-4.6105 ярким
-4.6105 потерять
-4.6105 посмотрю
-4.6105 желтое
-4.6105 обошел
-4.6105 стыда
-4.6105 сплошной
-4.6105 подолгу
-4.6105 собственные
-4.6105 двум
-4.6105 девяти
-4.6105 бледная
-4.6105 обстановка
-4.6105 рубаху
-4.6105 попытался
-4.6105 проклятый
-4.6105 оживился
-4.6105 полностью
-4.6105 охватила
-4.6105 тенью
-4.6105 площадку
-4.6105 детское
-4.6105 учил
-4.6105 поблизости
-4.6105 недостаточно
-4.6105 подумай
-4.6105 презрением
-4.6105 соседнюю
-4.6105 период
-4.6105 необходимость
-4.6105 документы
-4.6105 резать
-4.6105 обстоятельство
-4.6105 яблоки
-4.6105 честный
-4.6105 приговор
-4.6105 семьей
-4.6105 военное
-4.6105 недурно
-4.6105 радостный
-4.6105 безусловно
-4.6105 наклонившись
-4.6105 вагоны
-4.6105 сибирь
-4.6105 имеем
-4.6105 глупость
-4.6105 кончить
-4.6105 сражения
-4.6105 воры
-4.6105 койки
-4.6105 извиняюсь
-4.6105 навеки
-4.6105 помни
-4.6105 московского
-4.6105 истина
-4.6105 неприятеля
-4.6105 люк
-4.6105 федя
-4.6105 викниксора
-4.6105 дэк
-4.6105 веселого
-4.6105 пройдя
-4.6105 блестящие
-4.6105 молчании
-4.6105 пронзительно
-4.6105 сильной
-4.6105 заставило
-4.6105 покачиваясь
-4.6105 пальцах
-4.6105 дороже
-4.6105 поразило
-4.6105 живы
-4.6105 заставила
-4.6105 перестала
-4.6105 временами
-4.6105 возвращались
-4.6105 грозно
-4.6105 безнадежно
-4.6105 самих
-4.6105 синяя
-4.6105 известного
-4.6105 беру
-4.6105 молод
-4.6105 живешь
-4.6105 спрашивают
-4.6105 ушами
-4.6105 шутя
-4.6105 грузно
-4.6105 точнее
-4.6105 замечая
-4.6105 схватить
-4.6105 уверены
-4.6105 долгих
-4.6105 прием
-4.6105 поговорим
-4.6105 кружку
-4.6105 ботинки
-4.6105 глупая
-4.6105 посоветовал
-4.6105 напомнил
-4.6105 одеялом
-4.6105 единственно
-4.6105 радовался
-4.6105 явление
-4.6105 заняться
-4.6105 сознательно
-4.6105 заняли
-4.6105 торжество
-4.6105 солнцу
-4.6105 дружески
-4.6105 чтения
-4.6105 туча
-4.6105 слышался
-4.6105 завтрак
-4.6105 чашку
-4.6105 приходи
-4.6105 купаться
-4.6105 отдай
-4.6105 песенку
-4.6105 задачи
-4.6105 уроки
-4.6105 парке
-4.6105 россией
-4.6105 орла
-4.6105 надобно
-4.6105 владимира
-4.6105 ви
-4.6105 хате
-4.6105 лись
-4.6105 юн
-4.6105 руна
-4.6105 эстамп
-4.6105 прохорыч
-4.6105 дигэ
-4.6105 олеся
-4.6105 воспоминаний
-4.6105 обстоятельствах
-4.6105 ударили
-4.6105 блестящими
-4.6105 лба
-4.6105 сошлись
-4.6105 исчезло
-4.6105 тонкую
-4.6105 оставалась
-4.6105 удачно
-4.6105 потолка
